digraph Tree {
node [shape=box] ;
0 [label="duration <= 473.5\ngini = 0.208\nsamples = 31647\nvalue = [27909, 3738]\nclass = No"] ;
1 [label="pdays <= 16.0\ngini = 0.135\nsamples = 27466\nvalue = [25471, 1995]\nclass = No"] ;
0 -> 1 [labeldistance=2.5, labelangle=45, headlabel="True"] ;
2 [label="age <= 60.5\ngini = 0.091\nsamples = 22534\nvalue = [21462, 1072]\nclass = No"] ;
1 -> 2 ;
3 [label="month <= 4.5\ngini = 0.08\nsamples = 22088\nvalue = [21172, 916]\nclass = No"] ;
2 -> 3 ;
4 [label="month <= 2.5\ngini = 0.216\nsamples = 2740\nvalue = [2403, 337]\nclass = No"] ;
3 -> 4 ;
5 [label="balance <= 1621.0\ngini = 0.135\nsamples = 1623\nvalue = [1505, 118]\nclass = No"] ;
4 -> 5 ;
6 [label="age <= 23.0\ngini = 0.097\nsamples = 1329\nvalue = [1261, 68]\nclass = No"] ;
5 -> 6 ;
7 [label="age <= 21.5\ngini = 0.496\nsamples = 11\nvalue = [6, 5]\nclass = No"] ;
6 -> 7 ;
8 [label="month <= 1.5\ngini = 0.245\nsamples = 7\nvalue = [6, 1]\nclass = No"] ;
7 -> 8 ;
9 [label="age <= 20.5\ngini = 0.5\nsamples = 2\nvalue = [1, 1]\nclass = No"] ;
8 -> 9 ;
10 [label="gini = 0.0\nsamples = 1\nvalue = [1, 0]\nclass = No"] ;
9 -> 10 ;
11 [label="gini = 0.0\nsamples = 1\nvalue = [0, 1]\nclass = Yes"] ;
9 -> 11 ;
12 [label="gini = 0.0\nsamples = 5\nvalue = [5, 0]\nclass = No"] ;
8 -> 12 ;
13 [label="gini = 0.0\nsamples = 4\nvalue = [0, 4]\nclass = Yes"] ;
7 -> 13 ;
14 [label="duration <= 153.5\ngini = 0.091\nsamples = 1318\nvalue = [1255, 63]\nclass = No"] ;
6 -> 14 ;
15 [label="balance <= 979.5\ngini = 0.036\nsamples = 652\nvalue = [640, 12]\nclass = No"] ;
14 -> 15 ;
16 [label="day <= 9.5\ngini = 0.017\nsamples = 567\nvalue = [562, 5]\nclass = No"] ;
15 -> 16 ;
17 [label="gini = 0.0\nsamples = 360\nvalue = [360, 0]\nclass = No"] ;
16 -> 17 ;
18 [label="day <= 27.5\ngini = 0.047\nsamples = 207\nvalue = [202, 5]\nclass = No"] ;
16 -> 18 ;
19 [label="duration <= 83.5\ngini = 0.257\nsamples = 33\nvalue = [28, 5]\nclass = No"] ;
18 -> 19 ;
20 [label="gini = 0.0\nsamples = 18\nvalue = [18, 0]\nclass = No"] ;
19 -> 20 ;
21 [label="education <= 2.5\ngini = 0.444\nsamples = 15\nvalue = [10, 5]\nclass = No"] ;
19 -> 21 ;
22 [label="duration <= 144.5\ngini = 0.444\nsamples = 6\nvalue = [2, 4]\nclass = Yes"] ;
21 -> 22 ;
23 [label="job_services <= 0.5\ngini = 0.32\nsamples = 5\nvalue = [1, 4]\nclass = Yes"] ;
22 -> 23 ;
24 [label="gini = 0.0\nsamples = 4\nvalue = [0, 4]\nclass = Yes"] ;
23 -> 24 ;
25 [label="gini = 0.0\nsamples = 1\nvalue = [1, 0]\nclass = No"] ;
23 -> 25 ;
26 [label="gini = 0.0\nsamples = 1\nvalue = [1, 0]\nclass = No"] ;
22 -> 26 ;
27 [label="campaign <= 5.0\ngini = 0.198\nsamples = 9\nvalue = [8, 1]\nclass = No"] ;
21 -> 27 ;
28 [label="gini = 0.0\nsamples = 8\nvalue = [8, 0]\nclass = No"] ;
27 -> 28 ;
29 [label="gini = 0.0\nsamples = 1\nvalue = [0, 1]\nclass = Yes"] ;
27 -> 29 ;
30 [label="gini = 0.0\nsamples = 174\nvalue = [174, 0]\nclass = No"] ;
18 -> 30 ;
31 [label="balance <= 993.0\ngini = 0.151\nsamples = 85\nvalue = [78, 7]\nclass = No"] ;
15 -> 31 ;
32 [label="age <= 32.0\ngini = 0.444\nsamples = 3\nvalue = [1, 2]\nclass = Yes"] ;
31 -> 32 ;
33 [label="gini = 0.0\nsamples = 1\nvalue = [1, 0]\nclass = No"] ;
32 -> 33 ;
34 [label="gini = 0.0\nsamples = 2\nvalue = [0, 2]\nclass = Yes"] ;
32 -> 34 ;
35 [label="balance <= 1081.5\ngini = 0.115\nsamples = 82\nvalue = [77, 5]\nclass = No"] ;
31 -> 35 ;
36 [label="campaign <= 2.5\ngini = 0.337\nsamples = 14\nvalue = [11, 3]\nclass = No"] ;
35 -> 36 ;
37 [label="gini = 0.0\nsamples = 9\nvalue = [9, 0]\nclass = No"] ;
36 -> 37 ;
38 [label="balance <= 1030.0\ngini = 0.48\nsamples = 5\nvalue = [2, 3]\nclass = Yes"] ;
36 -> 38 ;
39 [label="gini = 0.0\nsamples = 2\nvalue = [2, 0]\nclass = No"] ;
38 -> 39 ;
40 [label="gini = 0.0\nsamples = 3\nvalue = [0, 3]\nclass = Yes"] ;
38 -> 40 ;
41 [label="job_services <= 0.5\ngini = 0.057\nsamples = 68\nvalue = [66, 2]\nclass = No"] ;
35 -> 41 ;
42 [label="age <= 29.5\ngini = 0.032\nsamples = 62\nvalue = [61, 1]\nclass = No"] ;
41 -> 42 ;
43 [label="marital <= 1.5\ngini = 0.165\nsamples = 11\nvalue = [10, 1]\nclass = No"] ;
42 -> 43 ;
44 [label="gini = 0.0\nsamples = 9\nvalue = [9, 0]\nclass = No"] ;
43 -> 44 ;
45 [label="duration <= 105.0\ngini = 0.5\nsamples = 2\nvalue = [1, 1]\nclass = No"] ;
43 -> 45 ;
46 [label="gini = 0.0\nsamples = 1\nvalue = [0, 1]\nclass = Yes"] ;
45 -> 46 ;
47 [label="gini = 0.0\nsamples = 1\nvalue = [1, 0]\nclass = No"] ;
45 -> 47 ;
48 [label="gini = 0.0\nsamples = 51\nvalue = [51, 0]\nclass = No"] ;
42 -> 48 ;
49 [label="duration <= 132.0\ngini = 0.278\nsamples = 6\nvalue = [5, 1]\nclass = No"] ;
41 -> 49 ;
50 [label="gini = 0.0\nsamples = 5\nvalue = [5, 0]\nclass = No"] ;
49 -> 50 ;
51 [label="gini = 0.0\nsamples = 1\nvalue = [0, 1]\nclass = Yes"] ;
49 -> 51 ;
52 [label="day <= 27.5\ngini = 0.141\nsamples = 666\nvalue = [615, 51]\nclass = No"] ;
14 -> 52 ;
53 [label="day <= 9.5\ngini = 0.2\nsamples = 427\nvalue = [379, 48]\nclass = No"] ;
52 -> 53 ;
54 [label="day <= 1.5\ngini = 0.102\nsamples = 389\nvalue = [368, 21]\nclass = No"] ;
53 -> 54 ;
55 [label="gini = 0.0\nsamples = 1\nvalue = [0, 1]\nclass = Yes"] ;
54 -> 55 ;
56 [label="job_management <= 0.5\ngini = 0.098\nsamples = 388\nvalue = [368, 20]\nclass = No"] ;
54 -> 56 ;
57 [label="age <= 25.5\ngini = 0.059\nsamples = 297\nvalue = [288, 9]\nclass = No"] ;
56 -> 57 ;
58 [label="job_admin. <= 0.5\ngini = 0.5\nsamples = 2\nvalue = [1, 1]\nclass = No"] ;
57 -> 58 ;
59 [label="gini = 0.0\nsamples = 1\nvalue = [1, 0]\nclass = No"] ;
58 -> 59 ;
60 [label="gini = 0.0\nsamples = 1\nvalue = [0, 1]\nclass = Yes"] ;
58 -> 60 ;
61 [label="day <= 3.5\ngini = 0.053\nsamples = 295\nvalue = [287, 8]\nclass = No"] ;
57 -> 61 ;
62 [label="duration <= 397.0\ngini = 0.108\nsamples = 105\nvalue = [99, 6]\nclass = No"] ;
61 -> 62 ;
63 [label="age <= 58.5\ngini = 0.08\nsamples = 96\nvalue = [92, 4]\nclass = No"] ;
62 -> 63 ;
64 [label="balance <= 1289.5\ngini = 0.063\nsamples = 92\nvalue = [89, 3]\nclass = No"] ;
63 -> 64 ;
65 [label="balance <= 99.0\ngini = 0.045\nsamples = 87\nvalue = [85, 2]\nclass = No"] ;
64 -> 65 ;
66 [label="balance <= 84.5\ngini = 0.153\nsamples = 24\nvalue = [22, 2]\nclass = No"] ;
65 -> 66 ;
67 [label="gini = 0.0\nsamples = 22\nvalue = [22, 0]\nclass = No"] ;
66 -> 67 ;
68 [label="gini = 0.0\nsamples = 2\nvalue = [0, 2]\nclass = Yes"] ;
66 -> 68 ;
69 [label="gini = 0.0\nsamples = 63\nvalue = [63, 0]\nclass = No"] ;
65 -> 69 ;
70 [label="balance <= 1293.0\ngini = 0.32\nsamples = 5\nvalue = [4, 1]\nclass = No"] ;
64 -> 70 ;
71 [label="gini = 0.0\nsamples = 1\nvalue = [0, 1]\nclass = Yes"] ;
70 -> 71 ;
72 [label="gini = 0.0\nsamples = 4\nvalue = [4, 0]\nclass = No"] ;
70 -> 72 ;
73 [label="job_retired <= 0.5\ngini = 0.375\nsamples = 4\nvalue = [3, 1]\nclass = No"] ;
63 -> 73 ;
74 [label="gini = 0.0\nsamples = 2\nvalue = [2, 0]\nclass = No"] ;
73 -> 74 ;
75 [label="education <= 2.5\ngini = 0.5\nsamples = 2\nvalue = [1, 1]\nclass = No"] ;
73 -> 75 ;
76 [label="gini = 0.0\nsamples = 1\nvalue = [0, 1]\nclass = Yes"] ;
75 -> 76 ;
77 [label="gini = 0.0\nsamples = 1\nvalue = [1, 0]\nclass = No"] ;
75 -> 77 ;
78 [label="duration <= 404.0\ngini = 0.346\nsamples = 9\nvalue = [7, 2]\nclass = No"] ;
62 -> 78 ;
79 [label="gini = 0.0\nsamples = 1\nvalue = [0, 1]\nclass = Yes"] ;
78 -> 79 ;
80 [label="education <= 1.5\ngini = 0.219\nsamples = 8\nvalue = [7, 1]\nclass = No"] ;
78 -> 80 ;
81 [label="gini = 0.0\nsamples = 1\nvalue = [0, 1]\nclass = Yes"] ;
80 -> 81 ;
82 [label="gini = 0.0\nsamples = 7\nvalue = [7, 0]\nclass = No"] ;
80 -> 82 ;
83 [label="age <= 26.5\ngini = 0.021\nsamples = 190\nvalue = [188, 2]\nclass = No"] ;
61 -> 83 ;
84 [label="day <= 7.5\ngini = 0.278\nsamples = 6\nvalue = [5, 1]\nclass = No"] ;
83 -> 84 ;
85 [label="gini = 0.0\nsamples = 5\nvalue = [5, 0]\nclass = No"] ;
84 -> 85 ;
86 [label="gini = 0.0\nsamples = 1\nvalue = [0, 1]\nclass = Yes"] ;
84 -> 86 ;
87 [label="job_admin. <= 0.5\ngini = 0.011\nsamples = 184\nvalue = [183, 1]\nclass = No"] ;
83 -> 87 ;
88 [label="gini = 0.0\nsamples = 161\nvalue = [161, 0]\nclass = No"] ;
87 -> 88 ;
89 [label="education <= 2.5\ngini = 0.083\nsamples = 23\nvalue = [22, 1]\nclass = No"] ;
87 -> 89 ;
90 [label="gini = 0.0\nsamples = 20\nvalue = [20, 0]\nclass = No"] ;
89 -> 90 ;
91 [label="age <= 38.5\ngini = 0.444\nsamples = 3\nvalue = [2, 1]\nclass = No"] ;
89 -> 91 ;
92 [label="gini = 0.0\nsamples = 1\nvalue = [0, 1]\nclass = Yes"] ;
91 -> 92 ;
93 [label="gini = 0.0\nsamples = 2\nvalue = [2, 0]\nclass = No"] ;
91 -> 93 ;
94 [label="duration <= 299.0\ngini = 0.213\nsamples = 91\nvalue = [80, 11]\nclass = No"] ;
56 -> 94 ;
95 [label="day <= 5.5\ngini = 0.14\nsamples = 66\nvalue = [61, 5]\nclass = No"] ;
94 -> 95 ;
96 [label="duration <= 235.0\ngini = 0.073\nsamples = 53\nvalue = [51, 2]\nclass = No"] ;
95 -> 96 ;
97 [label="gini = 0.0\nsamples = 35\nvalue = [35, 0]\nclass = No"] ;
96 -> 97 ;
98 [label="duration <= 253.0\ngini = 0.198\nsamples = 18\nvalue = [16, 2]\nclass = No"] ;
96 -> 98 ;
99 [label="campaign <= 1.5\ngini = 0.444\nsamples = 6\nvalue = [4, 2]\nclass = No"] ;
98 -> 99 ;
100 [label="age <= 30.5\ngini = 0.444\nsamples = 3\nvalue = [1, 2]\nclass = Yes"] ;
99 -> 100 ;
101 [label="gini = 0.0\nsamples = 1\nvalue = [1, 0]\nclass = No"] ;
100 -> 101 ;
102 [label="gini = 0.0\nsamples = 2\nvalue = [0, 2]\nclass = Yes"] ;
100 -> 102 ;
103 [label="gini = 0.0\nsamples = 3\nvalue = [3, 0]\nclass = No"] ;
99 -> 103 ;
104 [label="gini = 0.0\nsamples = 12\nvalue = [12, 0]\nclass = No"] ;
98 -> 104 ;
105 [label="campaign <= 1.5\ngini = 0.355\nsamples = 13\nvalue = [10, 3]\nclass = No"] ;
95 -> 105 ;
106 [label="housing_yes <= 0.5\ngini = 0.444\nsamples = 3\nvalue = [1, 2]\nclass = Yes"] ;
105 -> 106 ;
107 [label="gini = 0.0\nsamples = 2\nvalue = [0, 2]\nclass = Yes"] ;
106 -> 107 ;
108 [label="gini = 0.0\nsamples = 1\nvalue = [1, 0]\nclass = No"] ;
106 -> 108 ;
109 [label="day <= 7.0\ngini = 0.18\nsamples = 10\nvalue = [9, 1]\nclass = No"] ;
105 -> 109 ;
110 [label="campaign <= 2.5\ngini = 0.444\nsamples = 3\nvalue = [2, 1]\nclass = No"] ;
109 -> 110 ;
111 [label="gini = 0.0\nsamples = 1\nvalue = [0, 1]\nclass = Yes"] ;
110 -> 111 ;
112 [label="gini = 0.0\nsamples = 2\nvalue = [2, 0]\nclass = No"] ;
110 -> 112 ;
113 [label="gini = 0.0\nsamples = 7\nvalue = [7, 0]\nclass = No"] ;
109 -> 113 ;
114 [label="duration <= 308.0\ngini = 0.365\nsamples = 25\nvalue = [19, 6]\nclass = No"] ;
94 -> 114 ;
115 [label="gini = 0.0\nsamples = 2\nvalue = [0, 2]\nclass = Yes"] ;
114 -> 115 ;
116 [label="balance <= 31.0\ngini = 0.287\nsamples = 23\nvalue = [19, 4]\nclass = No"] ;
114 -> 116 ;
117 [label="gini = 0.0\nsamples = 8\nvalue = [8, 0]\nclass = No"] ;
116 -> 117 ;
118 [label="balance <= 82.5\ngini = 0.391\nsamples = 15\nvalue = [11, 4]\nclass = No"] ;
116 -> 118 ;
119 [label="gini = 0.0\nsamples = 3\nvalue = [0, 3]\nclass = Yes"] ;
118 -> 119 ;
120 [label="age <= 32.5\ngini = 0.153\nsamples = 12\nvalue = [11, 1]\nclass = No"] ;
118 -> 120 ;
121 [label="campaign <= 1.5\ngini = 0.5\nsamples = 2\nvalue = [1, 1]\nclass = No"] ;
120 -> 121 ;
122 [label="gini = 0.0\nsamples = 1\nvalue = [1, 0]\nclass = No"] ;
121 -> 122 ;
123 [label="gini = 0.0\nsamples = 1\nvalue = [0, 1]\nclass = Yes"] ;
121 -> 123 ;
124 [label="gini = 0.0\nsamples = 10\nvalue = [10, 0]\nclass = No"] ;
120 -> 124 ;
125 [label="day <= 18.5\ngini = 0.411\nsamples = 38\nvalue = [11, 27]\nclass = Yes"] ;
53 -> 125 ;
126 [label="job_self-employed <= 0.5\ngini = 0.245\nsamples = 21\nvalue = [3, 18]\nclass = Yes"] ;
125 -> 126 ;
127 [label="month <= 1.5\ngini = 0.18\nsamples = 20\nvalue = [2, 18]\nclass = Yes"] ;
126 -> 127 ;
128 [label="duration <= 358.0\ngini = 0.444\nsamples = 6\nvalue = [2, 4]\nclass = Yes"] ;
127 -> 128 ;
129 [label="balance <= 90.0\ngini = 0.444\nsamples = 3\nvalue = [2, 1]\nclass = No"] ;
128 -> 129 ;
130 [label="gini = 0.0\nsamples = 1\nvalue = [0, 1]\nclass = Yes"] ;
129 -> 130 ;
131 [label="gini = 0.0\nsamples = 2\nvalue = [2, 0]\nclass = No"] ;
129 -> 131 ;
132 [label="gini = 0.0\nsamples = 3\nvalue = [0, 3]\nclass = Yes"] ;
128 -> 132 ;
133 [label="gini = 0.0\nsamples = 14\nvalue = [0, 14]\nclass = Yes"] ;
127 -> 133 ;
134 [label="gini = 0.0\nsamples = 1\nvalue = [1, 0]\nclass = No"] ;
126 -> 134 ;
135 [label="balance <= 157.0\ngini = 0.498\nsamples = 17\nvalue = [8, 9]\nclass = Yes"] ;
125 -> 135 ;
136 [label="gini = 0.0\nsamples = 5\nvalue = [5, 0]\nclass = No"] ;
135 -> 136 ;
137 [label="month <= 1.5\ngini = 0.375\nsamples = 12\nvalue = [3, 9]\nclass = Yes"] ;
135 -> 137 ;
138 [label="gini = 0.0\nsamples = 1\nvalue = [1, 0]\nclass = No"] ;
137 -> 138 ;
139 [label="marital <= 2.5\ngini = 0.298\nsamples = 11\nvalue = [2, 9]\nclass = Yes"] ;
137 -> 139 ;
140 [label="job_unemployed <= 0.5\ngini = 0.18\nsamples = 10\nvalue = [1, 9]\nclass = Yes"] ;
139 -> 140 ;
141 [label="gini = 0.0\nsamples = 8\nvalue = [0, 8]\nclass = Yes"] ;
140 -> 141 ;
142 [label="education <= 2.0\ngini = 0.5\nsamples = 2\nvalue = [1, 1]\nclass = No"] ;
140 -> 142 ;
143 [label="gini = 0.0\nsamples = 1\nvalue = [1, 0]\nclass = No"] ;
142 -> 143 ;
144 [label="gini = 0.0\nsamples = 1\nvalue = [0, 1]\nclass = Yes"] ;
142 -> 144 ;
145 [label="gini = 0.0\nsamples = 1\nvalue = [1, 0]\nclass = No"] ;
139 -> 145 ;
146 [label="age <= 47.5\ngini = 0.025\nsamples = 239\nvalue = [236, 3]\nclass = No"] ;
52 -> 146 ;
147 [label="gini = 0.0\nsamples = 190\nvalue = [190, 0]\nclass = No"] ;
146 -> 147 ;
148 [label="duration <= 414.5\ngini = 0.115\nsamples = 49\nvalue = [46, 3]\nclass = No"] ;
146 -> 148 ;
149 [label="education <= 1.5\ngini = 0.081\nsamples = 47\nvalue = [45, 2]\nclass = No"] ;
148 -> 149 ;
150 [label="job_technician <= 0.5\ngini = 0.26\nsamples = 13\nvalue = [11, 2]\nclass = No"] ;
149 -> 150 ;
151 [label="job_blue-collar <= 0.5\ngini = 0.153\nsamples = 12\nvalue = [11, 1]\nclass = No"] ;
150 -> 151 ;
152 [label="gini = 0.0\nsamples = 11\nvalue = [11, 0]\nclass = No"] ;
151 -> 152 ;
153 [label="gini = 0.0\nsamples = 1\nvalue = [0, 1]\nclass = Yes"] ;
151 -> 153 ;
154 [label="gini = 0.0\nsamples = 1\nvalue = [0, 1]\nclass = Yes"] ;
150 -> 154 ;
155 [label="gini = 0.0\nsamples = 34\nvalue = [34, 0]\nclass = No"] ;
149 -> 155 ;
156 [label="campaign <= 3.0\ngini = 0.5\nsamples = 2\nvalue = [1, 1]\nclass = No"] ;
148 -> 156 ;
157 [label="gini = 0.0\nsamples = 1\nvalue = [1, 0]\nclass = No"] ;
156 -> 157 ;
158 [label="gini = 0.0\nsamples = 1\nvalue = [0, 1]\nclass = Yes"] ;
156 -> 158 ;
159 [label="day <= 10.5\ngini = 0.282\nsamples = 294\nvalue = [244, 50]\nclass = No"] ;
5 -> 159 ;
160 [label="education <= 2.5\ngini = 0.166\nsamples = 175\nvalue = [159, 16]\nclass = No"] ;
159 -> 160 ;
161 [label="job_student <= 0.5\ngini = 0.039\nsamples = 100\nvalue = [98, 2]\nclass = No"] ;
160 -> 161 ;
162 [label="balance <= 6109.0\ngini = 0.021\nsamples = 95\nvalue = [94, 1]\nclass = No"] ;
161 -> 162 ;
163 [label="gini = 0.0\nsamples = 75\nvalue = [75, 0]\nclass = No"] ;
162 -> 163 ;
164 [label="balance <= 6122.0\ngini = 0.095\nsamples = 20\nvalue = [19, 1]\nclass = No"] ;
162 -> 164 ;
165 [label="gini = 0.0\nsamples = 1\nvalue = [0, 1]\nclass = Yes"] ;
164 -> 165 ;
166 [label="gini = 0.0\nsamples = 19\nvalue = [19, 0]\nclass = No"] ;
164 -> 166 ;
167 [label="age <= 28.5\ngini = 0.32\nsamples = 5\nvalue = [4, 1]\nclass = No"] ;
161 -> 167 ;
168 [label="gini = 0.0\nsamples = 4\nvalue = [4, 0]\nclass = No"] ;
167 -> 168 ;
169 [label="gini = 0.0\nsamples = 1\nvalue = [0, 1]\nclass = Yes"] ;
167 -> 169 ;
170 [label="age <= 59.5\ngini = 0.304\nsamples = 75\nvalue = [61, 14]\nclass = No"] ;
160 -> 170 ;
171 [label="job_technician <= 0.5\ngini = 0.275\nsamples = 73\nvalue = [61, 12]\nclass = No"] ;
170 -> 171 ;
172 [label="balance <= 1635.0\ngini = 0.206\nsamples = 60\nvalue = [53, 7]\nclass = No"] ;
171 -> 172 ;
173 [label="gini = 0.0\nsamples = 1\nvalue = [0, 1]\nclass = Yes"] ;
172 -> 173 ;
174 [label="duration <= 451.0\ngini = 0.183\nsamples = 59\nvalue = [53, 6]\nclass = No"] ;
172 -> 174 ;
175 [label="age <= 57.5\ngini = 0.158\nsamples = 58\nvalue = [53, 5]\nclass = No"] ;
174 -> 175 ;
176 [label="day <= 7.0\ngini = 0.107\nsamples = 53\nvalue = [50, 3]\nclass = No"] ;
175 -> 176 ;
177 [label="age <= 52.0\ngini = 0.043\nsamples = 46\nvalue = [45, 1]\nclass = No"] ;
176 -> 177 ;
178 [label="gini = 0.0\nsamples = 37\nvalue = [37, 0]\nclass = No"] ;
177 -> 178 ;
179 [label="age <= 53.5\ngini = 0.198\nsamples = 9\nvalue = [8, 1]\nclass = No"] ;
177 -> 179 ;
180 [label="day <= 2.5\ngini = 0.5\nsamples = 2\nvalue = [1, 1]\nclass = No"] ;
179 -> 180 ;
181 [label="gini = 0.0\nsamples = 1\nvalue = [1, 0]\nclass = No"] ;
180 -> 181 ;
182 [label="gini = 0.0\nsamples = 1\nvalue = [0, 1]\nclass = Yes"] ;
180 -> 182 ;
183 [label="gini = 0.0\nsamples = 7\nvalue = [7, 0]\nclass = No"] ;
179 -> 183 ;
184 [label="day <= 8.5\ngini = 0.408\nsamples = 7\nvalue = [5, 2]\nclass = No"] ;
176 -> 184 ;
185 [label="gini = 0.0\nsamples = 2\nvalue = [0, 2]\nclass = Yes"] ;
184 -> 185 ;
186 [label="gini = 0.0\nsamples = 5\nvalue = [5, 0]\nclass = No"] ;
184 -> 186 ;
187 [label="duration <= 176.5\ngini = 0.48\nsamples = 5\nvalue = [3, 2]\nclass = No"] ;
175 -> 187 ;
188 [label="gini = 0.0\nsamples = 3\nvalue = [3, 0]\nclass = No"] ;
187 -> 188 ;
189 [label="gini = 0.0\nsamples = 2\nvalue = [0, 2]\nclass = Yes"] ;
187 -> 189 ;
190 [label="gini = 0.0\nsamples = 1\nvalue = [0, 1]\nclass = Yes"] ;
174 -> 190 ;
191 [label="housing_yes <= 0.5\ngini = 0.473\nsamples = 13\nvalue = [8, 5]\nclass = No"] ;
171 -> 191 ;
192 [label="age <= 30.0\ngini = 0.469\nsamples = 8\nvalue = [3, 5]\nclass = Yes"] ;
191 -> 192 ;
193 [label="gini = 0.0\nsamples = 4\nvalue = [0, 4]\nclass = Yes"] ;
192 -> 193 ;
194 [label="balance <= 5952.0\ngini = 0.375\nsamples = 4\nvalue = [3, 1]\nclass = No"] ;
192 -> 194 ;
195 [label="gini = 0.0\nsamples = 3\nvalue = [3, 0]\nclass = No"] ;
194 -> 195 ;
196 [label="gini = 0.0\nsamples = 1\nvalue = [0, 1]\nclass = Yes"] ;
194 -> 196 ;
197 [label="gini = 0.0\nsamples = 5\nvalue = [5, 0]\nclass = No"] ;
191 -> 197 ;
198 [label="gini = 0.0\nsamples = 2\nvalue = [0, 2]\nclass = Yes"] ;
170 -> 198 ;
199 [label="day <= 27.5\ngini = 0.408\nsamples = 119\nvalue = [85, 34]\nclass = No"] ;
159 -> 199 ;
200 [label="duration <= 202.0\ngini = 0.48\nsamples = 50\nvalue = [20, 30]\nclass = Yes"] ;
199 -> 200 ;
201 [label="month <= 1.5\ngini = 0.473\nsamples = 26\nvalue = [16, 10]\nclass = No"] ;
200 -> 201 ;
202 [label="gini = 0.0\nsamples = 5\nvalue = [5, 0]\nclass = No"] ;
201 -> 202 ;
203 [label="duration <= 74.0\ngini = 0.499\nsamples = 21\nvalue = [11, 10]\nclass = No"] ;
201 -> 203 ;
204 [label="gini = 0.0\nsamples = 4\nvalue = [4, 0]\nclass = No"] ;
203 -> 204 ;
205 [label="contact <= 1.5\ngini = 0.484\nsamples = 17\nvalue = [7, 10]\nclass = Yes"] ;
203 -> 205 ;
206 [label="housing_yes <= 0.5\ngini = 0.408\nsamples = 14\nvalue = [4, 10]\nclass = Yes"] ;
205 -> 206 ;
207 [label="day <= 22.0\ngini = 0.18\nsamples = 10\nvalue = [1, 9]\nclass = Yes"] ;
206 -> 207 ;
208 [label="gini = 0.0\nsamples = 8\nvalue = [0, 8]\nclass = Yes"] ;
207 -> 208 ;
209 [label="age <= 35.5\ngini = 0.5\nsamples = 2\nvalue = [1, 1]\nclass = No"] ;
207 -> 209 ;
210 [label="gini = 0.0\nsamples = 1\nvalue = [1, 0]\nclass = No"] ;
209 -> 210 ;
211 [label="gini = 0.0\nsamples = 1\nvalue = [0, 1]\nclass = Yes"] ;
209 -> 211 ;
212 [label="duration <= 144.0\ngini = 0.375\nsamples = 4\nvalue = [3, 1]\nclass = No"] ;
206 -> 212 ;
213 [label="gini = 0.0\nsamples = 3\nvalue = [3, 0]\nclass = No"] ;
212 -> 213 ;
214 [label="gini = 0.0\nsamples = 1\nvalue = [0, 1]\nclass = Yes"] ;
212 -> 214 ;
215 [label="gini = 0.0\nsamples = 3\nvalue = [3, 0]\nclass = No"] ;
205 -> 215 ;
216 [label="age <= 52.5\ngini = 0.278\nsamples = 24\nvalue = [4, 20]\nclass = Yes"] ;
200 -> 216 ;
217 [label="job_unemployed <= 0.5\ngini = 0.172\nsamples = 21\nvalue = [2, 19]\nclass = Yes"] ;
216 -> 217 ;
218 [label="job_services <= 0.5\ngini = 0.095\nsamples = 20\nvalue = [1, 19]\nclass = Yes"] ;
217 -> 218 ;
219 [label="gini = 0.0\nsamples = 18\nvalue = [0, 18]\nclass = Yes"] ;
218 -> 219 ;
220 [label="balance <= 1985.5\ngini = 0.5\nsamples = 2\nvalue = [1, 1]\nclass = No"] ;
218 -> 220 ;
221 [label="gini = 0.0\nsamples = 1\nvalue = [0, 1]\nclass = Yes"] ;
220 -> 221 ;
222 [label="gini = 0.0\nsamples = 1\nvalue = [1, 0]\nclass = No"] ;
220 -> 222 ;
223 [label="gini = 0.0\nsamples = 1\nvalue = [1, 0]\nclass = No"] ;
217 -> 223 ;
224 [label="balance <= 6305.0\ngini = 0.444\nsamples = 3\nvalue = [2, 1]\nclass = No"] ;
216 -> 224 ;
225 [label="gini = 0.0\nsamples = 2\nvalue = [2, 0]\nclass = No"] ;
224 -> 225 ;
226 [label="gini = 0.0\nsamples = 1\nvalue = [0, 1]\nclass = Yes"] ;
224 -> 226 ;
227 [label="balance <= 14751.5\ngini = 0.109\nsamples = 69\nvalue = [65, 4]\nclass = No"] ;
199 -> 227 ;
228 [label="job_management <= 0.5\ngini = 0.084\nsamples = 68\nvalue = [65, 3]\nclass = No"] ;
227 -> 228 ;
229 [label="age <= 26.5\ngini = 0.035\nsamples = 56\nvalue = [55, 1]\nclass = No"] ;
228 -> 229 ;
230 [label="balance <= 2011.0\ngini = 0.32\nsamples = 5\nvalue = [4, 1]\nclass = No"] ;
229 -> 230 ;
231 [label="gini = 0.0\nsamples = 1\nvalue = [0, 1]\nclass = Yes"] ;
230 -> 231 ;
232 [label="gini = 0.0\nsamples = 4\nvalue = [4, 0]\nclass = No"] ;
230 -> 232 ;
233 [label="gini = 0.0\nsamples = 51\nvalue = [51, 0]\nclass = No"] ;
229 -> 233 ;
234 [label="balance <= 6769.0\ngini = 0.278\nsamples = 12\nvalue = [10, 2]\nclass = No"] ;
228 -> 234 ;
235 [label="balance <= 3337.0\ngini = 0.165\nsamples = 11\nvalue = [10, 1]\nclass = No"] ;
234 -> 235 ;
236 [label="gini = 0.0\nsamples = 8\nvalue = [8, 0]\nclass = No"] ;
235 -> 236 ;
237 [label="campaign <= 1.5\ngini = 0.444\nsamples = 3\nvalue = [2, 1]\nclass = No"] ;
235 -> 237 ;
238 [label="gini = 0.0\nsamples = 2\nvalue = [2, 0]\nclass = No"] ;
237 -> 238 ;
239 [label="gini = 0.0\nsamples = 1\nvalue = [0, 1]\nclass = Yes"] ;
237 -> 239 ;
240 [label="gini = 0.0\nsamples = 1\nvalue = [0, 1]\nclass = Yes"] ;
234 -> 240 ;
241 [label="gini = 0.0\nsamples = 1\nvalue = [0, 1]\nclass = Yes"] ;
227 -> 241 ;
242 [label="housing_yes <= 0.5\ngini = 0.315\nsamples = 1117\nvalue = [898, 219]\nclass = No"] ;
4 -> 242 ;
243 [label="duration <= 172.5\ngini = 0.482\nsamples = 423\nvalue = [252, 171]\nclass = No"] ;
242 -> 243 ;
244 [label="day <= 25.5\ngini = 0.36\nsamples = 217\nvalue = [166, 51]\nclass = No"] ;
243 -> 244 ;
245 [label="duration <= 94.5\ngini = 0.429\nsamples = 157\nvalue = [108, 49]\nclass = No"] ;
244 -> 245 ;
246 [label="job_management <= 0.5\ngini = 0.241\nsamples = 50\nvalue = [43, 7]\nclass = No"] ;
245 -> 246 ;
247 [label="loan_no <= 0.5\ngini = 0.1\nsamples = 38\nvalue = [36, 2]\nclass = No"] ;
246 -> 247 ;
248 [label="gini = 0.0\nsamples = 1\nvalue = [0, 1]\nclass = Yes"] ;
247 -> 248 ;
249 [label="marital <= 2.5\ngini = 0.053\nsamples = 37\nvalue = [36, 1]\nclass = No"] ;
247 -> 249 ;
250 [label="gini = 0.0\nsamples = 36\nvalue = [36, 0]\nclass = No"] ;
249 -> 250 ;
251 [label="gini = 0.0\nsamples = 1\nvalue = [0, 1]\nclass = Yes"] ;
249 -> 251 ;
252 [label="balance <= 187.0\ngini = 0.486\nsamples = 12\nvalue = [7, 5]\nclass = No"] ;
246 -> 252 ;
253 [label="gini = 0.0\nsamples = 2\nvalue = [0, 2]\nclass = Yes"] ;
252 -> 253 ;
254 [label="duration <= 67.0\ngini = 0.42\nsamples = 10\nvalue = [7, 3]\nclass = No"] ;
252 -> 254 ;
255 [label="gini = 0.0\nsamples = 2\nvalue = [0, 2]\nclass = Yes"] ;
254 -> 255 ;
256 [label="age <= 44.0\ngini = 0.219\nsamples = 8\nvalue = [7, 1]\nclass = No"] ;
254 -> 256 ;
257 [label="gini = 0.0\nsamples = 6\nvalue = [6, 0]\nclass = No"] ;
256 -> 257 ;
258 [label="marital <= 2.5\ngini = 0.5\nsamples = 2\nvalue = [1, 1]\nclass = No"] ;
256 -> 258 ;
259 [label="gini = 0.0\nsamples = 1\nvalue = [0, 1]\nclass = Yes"] ;
258 -> 259 ;
260 [label="gini = 0.0\nsamples = 1\nvalue = [1, 0]\nclass = No"] ;
258 -> 260 ;
261 [label="contact <= 1.5\ngini = 0.477\nsamples = 107\nvalue = [65, 42]\nclass = No"] ;
245 -> 261 ;
262 [label="campaign <= 5.5\ngini = 0.492\nsamples = 96\nvalue = [54, 42]\nclass = No"] ;
261 -> 262 ;
263 [label="duration <= 119.5\ngini = 0.499\nsamples = 85\nvalue = [44, 41]\nclass = No"] ;
262 -> 263 ;
264 [label="balance <= 10128.5\ngini = 0.469\nsamples = 40\nvalue = [25, 15]\nclass = No"] ;
263 -> 264 ;
265 [label="age <= 35.5\ngini = 0.438\nsamples = 37\nvalue = [25, 12]\nclass = No"] ;
264 -> 265 ;
266 [label="duration <= 115.0\ngini = 0.497\nsamples = 24\nvalue = [13, 11]\nclass = No"] ;
265 -> 266 ;
267 [label="age <= 20.5\ngini = 0.494\nsamples = 18\nvalue = [8, 10]\nclass = Yes"] ;
266 -> 267 ;
268 [label="gini = 0.0\nsamples = 2\nvalue = [2, 0]\nclass = No"] ;
267 -> 268 ;
269 [label="age <= 26.0\ngini = 0.469\nsamples = 16\nvalue = [6, 10]\nclass = Yes"] ;
267 -> 269 ;
270 [label="gini = 0.0\nsamples = 5\nvalue = [0, 5]\nclass = Yes"] ;
269 -> 270 ;
271 [label="balance <= 552.5\ngini = 0.496\nsamples = 11\nvalue = [6, 5]\nclass = No"] ;
269 -> 271 ;
272 [label="gini = 0.0\nsamples = 3\nvalue = [3, 0]\nclass = No"] ;
271 -> 272 ;
273 [label="day <= 14.5\ngini = 0.469\nsamples = 8\nvalue = [3, 5]\nclass = Yes"] ;
271 -> 273 ;
274 [label="duration <= 102.0\ngini = 0.48\nsamples = 5\nvalue = [3, 2]\nclass = No"] ;
273 -> 274 ;
275 [label="gini = 0.0\nsamples = 2\nvalue = [2, 0]\nclass = No"] ;
274 -> 275 ;
276 [label="age <= 31.5\ngini = 0.444\nsamples = 3\nvalue = [1, 2]\nclass = Yes"] ;
274 -> 276 ;
277 [label="gini = 0.0\nsamples = 2\nvalue = [0, 2]\nclass = Yes"] ;
276 -> 277 ;
278 [label="gini = 0.0\nsamples = 1\nvalue = [1, 0]\nclass = No"] ;
276 -> 278 ;
279 [label="gini = 0.0\nsamples = 3\nvalue = [0, 3]\nclass = Yes"] ;
273 -> 279 ;
280 [label="balance <= 3498.5\ngini = 0.278\nsamples = 6\nvalue = [5, 1]\nclass = No"] ;
266 -> 280 ;
281 [label="gini = 0.0\nsamples = 5\nvalue = [5, 0]\nclass = No"] ;
280 -> 281 ;
282 [label="gini = 0.0\nsamples = 1\nvalue = [0, 1]\nclass = Yes"] ;
280 -> 282 ;
283 [label="contact <= 0.0\ngini = 0.142\nsamples = 13\nvalue = [12, 1]\nclass = No"] ;
265 -> 283 ;
284 [label="gini = 0.0\nsamples = 1\nvalue = [0, 1]\nclass = Yes"] ;
283 -> 284 ;
285 [label="gini = 0.0\nsamples = 12\nvalue = [12, 0]\nclass = No"] ;
283 -> 285 ;
286 [label="gini = 0.0\nsamples = 3\nvalue = [0, 3]\nclass = Yes"] ;
264 -> 286 ;
287 [label="campaign <= 1.5\ngini = 0.488\nsamples = 45\nvalue = [19, 26]\nclass = Yes"] ;
263 -> 287 ;
288 [label="duration <= 133.5\ngini = 0.375\nsamples = 20\nvalue = [5, 15]\nclass = Yes"] ;
287 -> 288 ;
289 [label="gini = 0.0\nsamples = 8\nvalue = [0, 8]\nclass = Yes"] ;
288 -> 289 ;
290 [label="job_management <= 0.5\ngini = 0.486\nsamples = 12\nvalue = [5, 7]\nclass = Yes"] ;
288 -> 290 ;
291 [label="day <= 16.0\ngini = 0.469\nsamples = 8\nvalue = [5, 3]\nclass = No"] ;
290 -> 291 ;
292 [label="gini = 0.0\nsamples = 4\nvalue = [4, 0]\nclass = No"] ;
291 -> 292 ;
293 [label="duration <= 143.5\ngini = 0.375\nsamples = 4\nvalue = [1, 3]\nclass = Yes"] ;
291 -> 293 ;
294 [label="gini = 0.0\nsamples = 1\nvalue = [1, 0]\nclass = No"] ;
293 -> 294 ;
295 [label="gini = 0.0\nsamples = 3\nvalue = [0, 3]\nclass = Yes"] ;
293 -> 295 ;
296 [label="gini = 0.0\nsamples = 4\nvalue = [0, 4]\nclass = Yes"] ;
290 -> 296 ;
297 [label="day <= 4.0\ngini = 0.493\nsamples = 25\nvalue = [14, 11]\nclass = No"] ;
287 -> 297 ;
298 [label="gini = 0.0\nsamples = 3\nvalue = [0, 3]\nclass = Yes"] ;
297 -> 298 ;
299 [label="job_services <= 0.5\ngini = 0.463\nsamples = 22\nvalue = [14, 8]\nclass = No"] ;
297 -> 299 ;
300 [label="balance <= 508.5\ngini = 0.42\nsamples = 20\nvalue = [14, 6]\nclass = No"] ;
299 -> 300 ;
301 [label="gini = 0.0\nsamples = 5\nvalue = [5, 0]\nclass = No"] ;
300 -> 301 ;
302 [label="day <= 8.5\ngini = 0.48\nsamples = 15\nvalue = [9, 6]\nclass = No"] ;
300 -> 302 ;
303 [label="gini = 0.0\nsamples = 4\nvalue = [4, 0]\nclass = No"] ;
302 -> 303 ;
304 [label="campaign <= 2.5\ngini = 0.496\nsamples = 11\nvalue = [5, 6]\nclass = Yes"] ;
302 -> 304 ;
305 [label="balance <= 645.5\ngini = 0.469\nsamples = 8\nvalue = [5, 3]\nclass = No"] ;
304 -> 305 ;
306 [label="gini = 0.0\nsamples = 2\nvalue = [0, 2]\nclass = Yes"] ;
305 -> 306 ;
307 [label="education <= 0.0\ngini = 0.278\nsamples = 6\nvalue = [5, 1]\nclass = No"] ;
305 -> 307 ;
308 [label="gini = 0.0\nsamples = 1\nvalue = [0, 1]\nclass = Yes"] ;
307 -> 308 ;
309 [label="gini = 0.0\nsamples = 5\nvalue = [5, 0]\nclass = No"] ;
307 -> 309 ;
310 [label="gini = 0.0\nsamples = 3\nvalue = [0, 3]\nclass = Yes"] ;
304 -> 310 ;
311 [label="gini = 0.0\nsamples = 2\nvalue = [0, 2]\nclass = Yes"] ;
299 -> 311 ;
312 [label="marital <= 2.5\ngini = 0.165\nsamples = 11\nvalue = [10, 1]\nclass = No"] ;
262 -> 312 ;
313 [label="gini = 0.0\nsamples = 10\nvalue = [10, 0]\nclass = No"] ;
312 -> 313 ;
314 [label="gini = 0.0\nsamples = 1\nvalue = [0, 1]\nclass = Yes"] ;
312 -> 314 ;
315 [label="gini = 0.0\nsamples = 11\nvalue = [11, 0]\nclass = No"] ;
261 -> 315 ;
316 [label="age <= 24.5\ngini = 0.064\nsamples = 60\nvalue = [58, 2]\nclass = No"] ;
244 -> 316 ;
317 [label="balance <= 1487.0\ngini = 0.5\nsamples = 4\nvalue = [2, 2]\nclass = No"] ;
316 -> 317 ;
318 [label="gini = 0.0\nsamples = 2\nvalue = [2, 0]\nclass = No"] ;
317 -> 318 ;
319 [label="gini = 0.0\nsamples = 2\nvalue = [0, 2]\nclass = Yes"] ;
317 -> 319 ;
320 [label="gini = 0.0\nsamples = 56\nvalue = [56, 0]\nclass = No"] ;
316 -> 320 ;
321 [label="month <= 3.5\ngini = 0.486\nsamples = 206\nvalue = [86, 120]\nclass = Yes"] ;
243 -> 321 ;
322 [label="day <= 16.5\ngini = 0.334\nsamples = 52\nvalue = [11, 41]\nclass = Yes"] ;
321 -> 322 ;
323 [label="job_admin. <= 0.5\ngini = 0.077\nsamples = 25\nvalue = [1, 24]\nclass = Yes"] ;
322 -> 323 ;
324 [label="gini = 0.0\nsamples = 24\nvalue = [0, 24]\nclass = Yes"] ;
323 -> 324 ;
325 [label="gini = 0.0\nsamples = 1\nvalue = [1, 0]\nclass = No"] ;
323 -> 325 ;
326 [label="age <= 34.0\ngini = 0.466\nsamples = 27\nvalue = [10, 17]\nclass = Yes"] ;
322 -> 326 ;
327 [label="balance <= 58.5\ngini = 0.245\nsamples = 14\nvalue = [2, 12]\nclass = Yes"] ;
326 -> 327 ;
328 [label="gini = 0.0\nsamples = 1\nvalue = [1, 0]\nclass = No"] ;
327 -> 328 ;
329 [label="job_student <= 0.5\ngini = 0.142\nsamples = 13\nvalue = [1, 12]\nclass = Yes"] ;
327 -> 329 ;
330 [label="gini = 0.0\nsamples = 10\nvalue = [0, 10]\nclass = Yes"] ;
329 -> 330 ;
331 [label="day <= 21.5\ngini = 0.444\nsamples = 3\nvalue = [1, 2]\nclass = Yes"] ;
329 -> 331 ;
332 [label="gini = 0.0\nsamples = 1\nvalue = [1, 0]\nclass = No"] ;
331 -> 332 ;
333 [label="gini = 0.0\nsamples = 2\nvalue = [0, 2]\nclass = Yes"] ;
331 -> 333 ;
334 [label="day <= 18.5\ngini = 0.473\nsamples = 13\nvalue = [8, 5]\nclass = No"] ;
326 -> 334 ;
335 [label="job_management <= 0.5\ngini = 0.375\nsamples = 4\nvalue = [1, 3]\nclass = Yes"] ;
334 -> 335 ;
336 [label="gini = 0.0\nsamples = 3\nvalue = [0, 3]\nclass = Yes"] ;
335 -> 336 ;
337 [label="gini = 0.0\nsamples = 1\nvalue = [1, 0]\nclass = No"] ;
335 -> 337 ;
338 [label="job_management <= 0.5\ngini = 0.346\nsamples = 9\nvalue = [7, 2]\nclass = No"] ;
334 -> 338 ;
339 [label="gini = 0.0\nsamples = 6\nvalue = [6, 0]\nclass = No"] ;
338 -> 339 ;
340 [label="marital <= 1.5\ngini = 0.444\nsamples = 3\nvalue = [1, 2]\nclass = Yes"] ;
338 -> 340 ;
341 [label="gini = 0.0\nsamples = 1\nvalue = [1, 0]\nclass = No"] ;
340 -> 341 ;
342 [label="gini = 0.0\nsamples = 2\nvalue = [0, 2]\nclass = Yes"] ;
340 -> 342 ;
343 [label="marital <= 1.5\ngini = 0.5\nsamples = 154\nvalue = [75, 79]\nclass = Yes"] ;
321 -> 343 ;
344 [label="contact <= 1.5\ngini = 0.472\nsamples = 63\nvalue = [24, 39]\nclass = Yes"] ;
343 -> 344 ;
345 [label="balance <= 458.0\ngini = 0.455\nsamples = 60\nvalue = [21, 39]\nclass = Yes"] ;
344 -> 345 ;
346 [label="day <= 22.5\ngini = 0.33\nsamples = 24\nvalue = [5, 19]\nclass = Yes"] ;
345 -> 346 ;
347 [label="day <= 7.5\ngini = 0.473\nsamples = 13\nvalue = [5, 8]\nclass = Yes"] ;
346 -> 347 ;
348 [label="gini = 0.0\nsamples = 3\nvalue = [0, 3]\nclass = Yes"] ;
347 -> 348 ;
349 [label="job_unemployed <= 0.5\ngini = 0.5\nsamples = 10\nvalue = [5, 5]\nclass = No"] ;
347 -> 349 ;
350 [label="balance <= 358.5\ngini = 0.469\nsamples = 8\nvalue = [5, 3]\nclass = No"] ;
349 -> 350 ;
351 [label="education <= 0.5\ngini = 0.408\nsamples = 7\nvalue = [5, 2]\nclass = No"] ;
350 -> 351 ;
352 [label="gini = 0.0\nsamples = 1\nvalue = [0, 1]\nclass = Yes"] ;
351 -> 352 ;
353 [label="duration <= 190.0\ngini = 0.278\nsamples = 6\nvalue = [5, 1]\nclass = No"] ;
351 -> 353 ;
354 [label="gini = 0.0\nsamples = 1\nvalue = [0, 1]\nclass = Yes"] ;
353 -> 354 ;
355 [label="gini = 0.0\nsamples = 5\nvalue = [5, 0]\nclass = No"] ;
353 -> 355 ;
356 [label="gini = 0.0\nsamples = 1\nvalue = [0, 1]\nclass = Yes"] ;
350 -> 356 ;
357 [label="gini = 0.0\nsamples = 2\nvalue = [0, 2]\nclass = Yes"] ;
349 -> 357 ;
358 [label="gini = 0.0\nsamples = 11\nvalue = [0, 11]\nclass = Yes"] ;
346 -> 358 ;
359 [label="balance <= 712.5\ngini = 0.494\nsamples = 36\nvalue = [16, 20]\nclass = Yes"] ;
345 -> 359 ;
360 [label="job_student <= 0.5\ngini = 0.219\nsamples = 8\nvalue = [7, 1]\nclass = No"] ;
359 -> 360 ;
361 [label="gini = 0.0\nsamples = 7\nvalue = [7, 0]\nclass = No"] ;
360 -> 361 ;
362 [label="gini = 0.0\nsamples = 1\nvalue = [0, 1]\nclass = Yes"] ;
360 -> 362 ;
363 [label="age <= 45.5\ngini = 0.436\nsamples = 28\nvalue = [9, 19]\nclass = Yes"] ;
359 -> 363 ;
364 [label="age <= 32.5\ngini = 0.393\nsamples = 26\nvalue = [7, 19]\nclass = Yes"] ;
363 -> 364 ;
365 [label="age <= 29.5\ngini = 0.465\nsamples = 19\nvalue = [7, 12]\nclass = Yes"] ;
364 -> 365 ;
366 [label="day <= 8.5\ngini = 0.278\nsamples = 12\nvalue = [2, 10]\nclass = Yes"] ;
365 -> 366 ;
367 [label="campaign <= 3.0\ngini = 0.444\nsamples = 3\nvalue = [2, 1]\nclass = No"] ;
366 -> 367 ;
368 [label="gini = 0.0\nsamples = 2\nvalue = [2, 0]\nclass = No"] ;
367 -> 368 ;
369 [label="gini = 0.0\nsamples = 1\nvalue = [0, 1]\nclass = Yes"] ;
367 -> 369 ;
370 [label="gini = 0.0\nsamples = 9\nvalue = [0, 9]\nclass = Yes"] ;
366 -> 370 ;
371 [label="job_management <= 0.5\ngini = 0.408\nsamples = 7\nvalue = [5, 2]\nclass = No"] ;
365 -> 371 ;
372 [label="gini = 0.0\nsamples = 5\nvalue = [5, 0]\nclass = No"] ;
371 -> 372 ;
373 [label="gini = 0.0\nsamples = 2\nvalue = [0, 2]\nclass = Yes"] ;
371 -> 373 ;
374 [label="gini = 0.0\nsamples = 7\nvalue = [0, 7]\nclass = Yes"] ;
364 -> 374 ;
375 [label="gini = 0.0\nsamples = 2\nvalue = [2, 0]\nclass = No"] ;
363 -> 375 ;
376 [label="gini = 0.0\nsamples = 3\nvalue = [3, 0]\nclass = No"] ;
344 -> 376 ;
377 [label="job_blue-collar <= 0.5\ngini = 0.493\nsamples = 91\nvalue = [51, 40]\nclass = No"] ;
343 -> 377 ;
378 [label="balance <= 307.0\ngini = 0.5\nsamples = 80\nvalue = [41, 39]\nclass = No"] ;
377 -> 378 ;
379 [label="job_entrepreneur <= 0.5\ngini = 0.36\nsamples = 17\nvalue = [13, 4]\nclass = No"] ;
378 -> 379 ;
380 [label="job_unemployed <= 0.5\ngini = 0.231\nsamples = 15\nvalue = [13, 2]\nclass = No"] ;
379 -> 380 ;
381 [label="job_unknown <= 0.5\ngini = 0.133\nsamples = 14\nvalue = [13, 1]\nclass = No"] ;
380 -> 381 ;
382 [label="gini = 0.0\nsamples = 13\nvalue = [13, 0]\nclass = No"] ;
381 -> 382 ;
383 [label="gini = 0.0\nsamples = 1\nvalue = [0, 1]\nclass = Yes"] ;
381 -> 383 ;
384 [label="gini = 0.0\nsamples = 1\nvalue = [0, 1]\nclass = Yes"] ;
380 -> 384 ;
385 [label="gini = 0.0\nsamples = 2\nvalue = [0, 2]\nclass = Yes"] ;
379 -> 385 ;
386 [label="duration <= 309.0\ngini = 0.494\nsamples = 63\nvalue = [28, 35]\nclass = Yes"] ;
378 -> 386 ;
387 [label="age <= 30.0\ngini = 0.475\nsamples = 36\nvalue = [22, 14]\nclass = No"] ;
386 -> 387 ;
388 [label="gini = 0.0\nsamples = 2\nvalue = [0, 2]\nclass = Yes"] ;
387 -> 388 ;
389 [label="balance <= 1547.0\ngini = 0.457\nsamples = 34\nvalue = [22, 12]\nclass = No"] ;
387 -> 389 ;
390 [label="balance <= 890.0\ngini = 0.5\nsamples = 18\nvalue = [9, 9]\nclass = No"] ;
389 -> 390 ;
391 [label="balance <= 615.5\ngini = 0.444\nsamples = 12\nvalue = [8, 4]\nclass = No"] ;
390 -> 391 ;
392 [label="day <= 21.0\ngini = 0.49\nsamples = 7\nvalue = [3, 4]\nclass = Yes"] ;
391 -> 392 ;
393 [label="gini = 0.0\nsamples = 3\nvalue = [0, 3]\nclass = Yes"] ;
392 -> 393 ;
394 [label="balance <= 446.0\ngini = 0.375\nsamples = 4\nvalue = [3, 1]\nclass = No"] ;
392 -> 394 ;
395 [label="gini = 0.0\nsamples = 3\nvalue = [3, 0]\nclass = No"] ;
394 -> 395 ;
396 [label="gini = 0.0\nsamples = 1\nvalue = [0, 1]\nclass = Yes"] ;
394 -> 396 ;
397 [label="gini = 0.0\nsamples = 5\nvalue = [5, 0]\nclass = No"] ;
391 -> 397 ;
398 [label="campaign <= 5.5\ngini = 0.278\nsamples = 6\nvalue = [1, 5]\nclass = Yes"] ;
390 -> 398 ;
399 [label="gini = 0.0\nsamples = 5\nvalue = [0, 5]\nclass = Yes"] ;
398 -> 399 ;
400 [label="gini = 0.0\nsamples = 1\nvalue = [1, 0]\nclass = No"] ;
398 -> 400 ;
401 [label="contact <= 1.5\ngini = 0.305\nsamples = 16\nvalue = [13, 3]\nclass = No"] ;
389 -> 401 ;
402 [label="balance <= 2503.0\ngini = 0.231\nsamples = 15\nvalue = [13, 2]\nclass = No"] ;
401 -> 402 ;
403 [label="gini = 0.0\nsamples = 7\nvalue = [7, 0]\nclass = No"] ;
402 -> 403 ;
404 [label="age <= 47.0\ngini = 0.375\nsamples = 8\nvalue = [6, 2]\nclass = No"] ;
402 -> 404 ;
405 [label="duration <= 239.0\ngini = 0.245\nsamples = 7\nvalue = [6, 1]\nclass = No"] ;
404 -> 405 ;
406 [label="gini = 0.0\nsamples = 4\nvalue = [4, 0]\nclass = No"] ;
405 -> 406 ;
407 [label="duration <= 249.5\ngini = 0.444\nsamples = 3\nvalue = [2, 1]\nclass = No"] ;
405 -> 407 ;
408 [label="gini = 0.0\nsamples = 1\nvalue = [0, 1]\nclass = Yes"] ;
407 -> 408 ;
409 [label="gini = 0.0\nsamples = 2\nvalue = [2, 0]\nclass = No"] ;
407 -> 409 ;
410 [label="gini = 0.0\nsamples = 1\nvalue = [0, 1]\nclass = Yes"] ;
404 -> 410 ;
411 [label="gini = 0.0\nsamples = 1\nvalue = [0, 1]\nclass = Yes"] ;
401 -> 411 ;
412 [label="age <= 32.0\ngini = 0.346\nsamples = 27\nvalue = [6, 21]\nclass = Yes"] ;
386 -> 412 ;
413 [label="campaign <= 1.5\ngini = 0.444\nsamples = 3\nvalue = [2, 1]\nclass = No"] ;
412 -> 413 ;
414 [label="gini = 0.0\nsamples = 1\nvalue = [0, 1]\nclass = Yes"] ;
413 -> 414 ;
415 [label="gini = 0.0\nsamples = 2\nvalue = [2, 0]\nclass = No"] ;
413 -> 415 ;
416 [label="job_retired <= 0.5\ngini = 0.278\nsamples = 24\nvalue = [4, 20]\nclass = Yes"] ;
412 -> 416 ;
417 [label="job_services <= 0.5\ngini = 0.172\nsamples = 21\nvalue = [2, 19]\nclass = Yes"] ;
416 -> 417 ;
418 [label="age <= 36.5\ngini = 0.095\nsamples = 20\nvalue = [1, 19]\nclass = Yes"] ;
417 -> 418 ;
419 [label="day <= 10.5\ngini = 0.32\nsamples = 5\nvalue = [1, 4]\nclass = Yes"] ;
418 -> 419 ;
420 [label="gini = 0.0\nsamples = 1\nvalue = [1, 0]\nclass = No"] ;
419 -> 420 ;
421 [label="gini = 0.0\nsamples = 4\nvalue = [0, 4]\nclass = Yes"] ;
419 -> 421 ;
422 [label="gini = 0.0\nsamples = 15\nvalue = [0, 15]\nclass = Yes"] ;
418 -> 422 ;
423 [label="gini = 0.0\nsamples = 1\nvalue = [1, 0]\nclass = No"] ;
417 -> 423 ;
424 [label="balance <= 739.5\ngini = 0.444\nsamples = 3\nvalue = [2, 1]\nclass = No"] ;
416 -> 424 ;
425 [label="gini = 0.0\nsamples = 1\nvalue = [0, 1]\nclass = Yes"] ;
424 -> 425 ;
426 [label="gini = 0.0\nsamples = 2\nvalue = [2, 0]\nclass = No"] ;
424 -> 426 ;
427 [label="day <= 9.0\ngini = 0.165\nsamples = 11\nvalue = [10, 1]\nclass = No"] ;
377 -> 427 ;
428 [label="gini = 0.0\nsamples = 1\nvalue = [0, 1]\nclass = Yes"] ;
427 -> 428 ;
429 [label="gini = 0.0\nsamples = 10\nvalue = [10, 0]\nclass = No"] ;
427 -> 429 ;
430 [label="month <= 3.5\ngini = 0.129\nsamples = 694\nvalue = [646, 48]\nclass = No"] ;
242 -> 430 ;
431 [label="duration <= 108.0\ngini = 0.495\nsamples = 42\nvalue = [23, 19]\nclass = No"] ;
430 -> 431 ;
432 [label="gini = 0.0\nsamples = 9\nvalue = [9, 0]\nclass = No"] ;
431 -> 432 ;
433 [label="age <= 34.5\ngini = 0.489\nsamples = 33\nvalue = [14, 19]\nclass = Yes"] ;
431 -> 433 ;
434 [label="balance <= 705.5\ngini = 0.469\nsamples = 16\nvalue = [10, 6]\nclass = No"] ;
433 -> 434 ;
435 [label="age <= 32.5\ngini = 0.469\nsamples = 8\nvalue = [3, 5]\nclass = Yes"] ;
434 -> 435 ;
436 [label="gini = 0.0\nsamples = 5\nvalue = [0, 5]\nclass = Yes"] ;
435 -> 436 ;
437 [label="gini = 0.0\nsamples = 3\nvalue = [3, 0]\nclass = No"] ;
435 -> 437 ;
438 [label="job_housemaid <= 0.5\ngini = 0.219\nsamples = 8\nvalue = [7, 1]\nclass = No"] ;
434 -> 438 ;
439 [label="gini = 0.0\nsamples = 7\nvalue = [7, 0]\nclass = No"] ;
438 -> 439 ;
440 [label="gini = 0.0\nsamples = 1\nvalue = [0, 1]\nclass = Yes"] ;
438 -> 440 ;
441 [label="education <= 2.5\ngini = 0.36\nsamples = 17\nvalue = [4, 13]\nclass = Yes"] ;
433 -> 441 ;
442 [label="campaign <= 3.0\ngini = 0.5\nsamples = 8\nvalue = [4, 4]\nclass = No"] ;
441 -> 442 ;
443 [label="loan_no <= 0.5\ngini = 0.444\nsamples = 6\nvalue = [4, 2]\nclass = No"] ;
442 -> 443 ;
444 [label="gini = 0.0\nsamples = 1\nvalue = [0, 1]\nclass = Yes"] ;
443 -> 444 ;
445 [label="age <= 38.0\ngini = 0.32\nsamples = 5\nvalue = [4, 1]\nclass = No"] ;
443 -> 445 ;
446 [label="gini = 0.0\nsamples = 1\nvalue = [0, 1]\nclass = Yes"] ;
445 -> 446 ;
447 [label="gini = 0.0\nsamples = 4\nvalue = [4, 0]\nclass = No"] ;
445 -> 447 ;
448 [label="gini = 0.0\nsamples = 2\nvalue = [0, 2]\nclass = Yes"] ;
442 -> 448 ;
449 [label="gini = 0.0\nsamples = 9\nvalue = [0, 9]\nclass = Yes"] ;
441 -> 449 ;
450 [label="day <= 20.5\ngini = 0.085\nsamples = 652\nvalue = [623, 29]\nclass = No"] ;
430 -> 450 ;
451 [label="education <= 2.5\ngini = 0.039\nsamples = 600\nvalue = [588, 12]\nclass = No"] ;
450 -> 451 ;
452 [label="day <= 15.5\ngini = 0.025\nsamples = 469\nvalue = [463, 6]\nclass = No"] ;
451 -> 452 ;
453 [label="campaign <= 4.5\ngini = 0.088\nsamples = 109\nvalue = [104, 5]\nclass = No"] ;
452 -> 453 ;
454 [label="day <= 14.5\ngini = 0.071\nsamples = 108\nvalue = [104, 4]\nclass = No"] ;
453 -> 454 ;
455 [label="age <= 36.5\ngini = 0.042\nsamples = 93\nvalue = [91, 2]\nclass = No"] ;
454 -> 455 ;
456 [label="age <= 34.5\ngini = 0.095\nsamples = 40\nvalue = [38, 2]\nclass = No"] ;
455 -> 456 ;
457 [label="gini = 0.0\nsamples = 23\nvalue = [23, 0]\nclass = No"] ;
456 -> 457 ;
458 [label="balance <= 530.0\ngini = 0.208\nsamples = 17\nvalue = [15, 2]\nclass = No"] ;
456 -> 458 ;
459 [label="gini = 0.0\nsamples = 7\nvalue = [7, 0]\nclass = No"] ;
458 -> 459 ;
460 [label="balance <= 561.5\ngini = 0.32\nsamples = 10\nvalue = [8, 2]\nclass = No"] ;
458 -> 460 ;
461 [label="gini = 0.0\nsamples = 1\nvalue = [0, 1]\nclass = Yes"] ;
460 -> 461 ;
462 [label="balance <= 1151.5\ngini = 0.198\nsamples = 9\nvalue = [8, 1]\nclass = No"] ;
460 -> 462 ;
463 [label="marital <= 1.5\ngini = 0.444\nsamples = 3\nvalue = [2, 1]\nclass = No"] ;
462 -> 463 ;
464 [label="gini = 0.0\nsamples = 2\nvalue = [2, 0]\nclass = No"] ;
463 -> 464 ;
465 [label="gini = 0.0\nsamples = 1\nvalue = [0, 1]\nclass = Yes"] ;
463 -> 465 ;
466 [label="gini = 0.0\nsamples = 6\nvalue = [6, 0]\nclass = No"] ;
462 -> 466 ;
467 [label="gini = 0.0\nsamples = 53\nvalue = [53, 0]\nclass = No"] ;
455 -> 467 ;
468 [label="balance <= 1992.5\ngini = 0.231\nsamples = 15\nvalue = [13, 2]\nclass = No"] ;
454 -> 468 ;
469 [label="gini = 0.0\nsamples = 12\nvalue = [12, 0]\nclass = No"] ;
468 -> 469 ;
470 [label="balance <= 3302.0\ngini = 0.444\nsamples = 3\nvalue = [1, 2]\nclass = Yes"] ;
468 -> 470 ;
471 [label="gini = 0.0\nsamples = 2\nvalue = [0, 2]\nclass = Yes"] ;
470 -> 471 ;
472 [label="gini = 0.0\nsamples = 1\nvalue = [1, 0]\nclass = No"] ;
470 -> 472 ;
473 [label="gini = 0.0\nsamples = 1\nvalue = [0, 1]\nclass = Yes"] ;
453 -> 473 ;
474 [label="job_technician <= 0.5\ngini = 0.006\nsamples = 360\nvalue = [359, 1]\nclass = No"] ;
452 -> 474 ;
475 [label="gini = 0.0\nsamples = 317\nvalue = [317, 0]\nclass = No"] ;
474 -> 475 ;
476 [label="balance <= 1736.0\ngini = 0.045\nsamples = 43\nvalue = [42, 1]\nclass = No"] ;
474 -> 476 ;
477 [label="gini = 0.0\nsamples = 34\nvalue = [34, 0]\nclass = No"] ;
476 -> 477 ;
478 [label="balance <= 2056.5\ngini = 0.198\nsamples = 9\nvalue = [8, 1]\nclass = No"] ;
476 -> 478 ;
479 [label="gini = 0.0\nsamples = 1\nvalue = [0, 1]\nclass = Yes"] ;
478 -> 479 ;
480 [label="gini = 0.0\nsamples = 8\nvalue = [8, 0]\nclass = No"] ;
478 -> 480 ;
481 [label="duration <= 449.5\ngini = 0.087\nsamples = 131\nvalue = [125, 6]\nclass = No"] ;
451 -> 481 ;
482 [label="age <= 53.5\ngini = 0.074\nsamples = 130\nvalue = [125, 5]\nclass = No"] ;
481 -> 482 ;
483 [label="balance <= 29.5\ngini = 0.047\nsamples = 125\nvalue = [122, 3]\nclass = No"] ;
482 -> 483 ;
484 [label="balance <= 9.5\ngini = 0.198\nsamples = 18\nvalue = [16, 2]\nclass = No"] ;
483 -> 484 ;
485 [label="duration <= 372.0\ngini = 0.111\nsamples = 17\nvalue = [16, 1]\nclass = No"] ;
484 -> 485 ;
486 [label="gini = 0.0\nsamples = 14\nvalue = [14, 0]\nclass = No"] ;
485 -> 486 ;
487 [label="duration <= 390.5\ngini = 0.444\nsamples = 3\nvalue = [2, 1]\nclass = No"] ;
485 -> 487 ;
488 [label="gini = 0.0\nsamples = 1\nvalue = [0, 1]\nclass = Yes"] ;
487 -> 488 ;
489 [label="gini = 0.0\nsamples = 2\nvalue = [2, 0]\nclass = No"] ;
487 -> 489 ;
490 [label="gini = 0.0\nsamples = 1\nvalue = [0, 1]\nclass = Yes"] ;
484 -> 490 ;
491 [label="duration <= 116.5\ngini = 0.019\nsamples = 107\nvalue = [106, 1]\nclass = No"] ;
483 -> 491 ;
492 [label="duration <= 112.0\ngini = 0.067\nsamples = 29\nvalue = [28, 1]\nclass = No"] ;
491 -> 492 ;
493 [label="gini = 0.0\nsamples = 28\nvalue = [28, 0]\nclass = No"] ;
492 -> 493 ;
494 [label="gini = 0.0\nsamples = 1\nvalue = [0, 1]\nclass = Yes"] ;
492 -> 494 ;
495 [label="gini = 0.0\nsamples = 78\nvalue = [78, 0]\nclass = No"] ;
491 -> 495 ;
496 [label="duration <= 214.0\ngini = 0.48\nsamples = 5\nvalue = [3, 2]\nclass = No"] ;
482 -> 496 ;
497 [label="gini = 0.0\nsamples = 3\nvalue = [3, 0]\nclass = No"] ;
496 -> 497 ;
498 [label="gini = 0.0\nsamples = 2\nvalue = [0, 2]\nclass = Yes"] ;
496 -> 498 ;
499 [label="gini = 0.0\nsamples = 1\nvalue = [0, 1]\nclass = Yes"] ;
481 -> 499 ;
500 [label="duration <= 313.0\ngini = 0.44\nsamples = 52\nvalue = [35, 17]\nclass = No"] ;
450 -> 500 ;
501 [label="balance <= 2877.5\ngini = 0.308\nsamples = 42\nvalue = [34, 8]\nclass = No"] ;
500 -> 501 ;
502 [label="job_blue-collar <= 0.5\ngini = 0.208\nsamples = 34\nvalue = [30, 4]\nclass = No"] ;
501 -> 502 ;
503 [label="campaign <= 7.5\ngini = 0.117\nsamples = 32\nvalue = [30, 2]\nclass = No"] ;
502 -> 503 ;
504 [label="balance <= 2.0\ngini = 0.067\nsamples = 29\nvalue = [28, 1]\nclass = No"] ;
503 -> 504 ;
505 [label="age <= 33.0\ngini = 0.219\nsamples = 8\nvalue = [7, 1]\nclass = No"] ;
504 -> 505 ;
506 [label="duration <= 128.5\ngini = 0.5\nsamples = 2\nvalue = [1, 1]\nclass = No"] ;
505 -> 506 ;
507 [label="gini = 0.0\nsamples = 1\nvalue = [1, 0]\nclass = No"] ;
506 -> 507 ;
508 [label="gini = 0.0\nsamples = 1\nvalue = [0, 1]\nclass = Yes"] ;
506 -> 508 ;
509 [label="gini = 0.0\nsamples = 6\nvalue = [6, 0]\nclass = No"] ;
505 -> 509 ;
510 [label="gini = 0.0\nsamples = 21\nvalue = [21, 0]\nclass = No"] ;
504 -> 510 ;
511 [label="balance <= 435.0\ngini = 0.444\nsamples = 3\nvalue = [2, 1]\nclass = No"] ;
503 -> 511 ;
512 [label="gini = 0.0\nsamples = 2\nvalue = [2, 0]\nclass = No"] ;
511 -> 512 ;
513 [label="gini = 0.0\nsamples = 1\nvalue = [0, 1]\nclass = Yes"] ;
511 -> 513 ;
514 [label="gini = 0.0\nsamples = 2\nvalue = [0, 2]\nclass = Yes"] ;
502 -> 514 ;
515 [label="duration <= 110.0\ngini = 0.5\nsamples = 8\nvalue = [4, 4]\nclass = No"] ;
501 -> 515 ;
516 [label="gini = 0.0\nsamples = 3\nvalue = [3, 0]\nclass = No"] ;
515 -> 516 ;
517 [label="job_services <= 0.5\ngini = 0.32\nsamples = 5\nvalue = [1, 4]\nclass = Yes"] ;
515 -> 517 ;
518 [label="gini = 0.0\nsamples = 4\nvalue = [0, 4]\nclass = Yes"] ;
517 -> 518 ;
519 [label="gini = 0.0\nsamples = 1\nvalue = [1, 0]\nclass = No"] ;
517 -> 519 ;
520 [label="job_technician <= 0.5\ngini = 0.18\nsamples = 10\nvalue = [1, 9]\nclass = Yes"] ;
500 -> 520 ;
521 [label="gini = 0.0\nsamples = 8\nvalue = [0, 8]\nclass = Yes"] ;
520 -> 521 ;
522 [label="balance <= 17.5\ngini = 0.5\nsamples = 2\nvalue = [1, 1]\nclass = No"] ;
520 -> 522 ;
523 [label="gini = 0.0\nsamples = 1\nvalue = [0, 1]\nclass = Yes"] ;
522 -> 523 ;
524 [label="gini = 0.0\nsamples = 1\nvalue = [1, 0]\nclass = No"] ;
522 -> 524 ;
525 [label="duration <= 214.5\ngini = 0.058\nsamples = 19348\nvalue = [18769, 579]\nclass = No"] ;
3 -> 525 ;
526 [label="month <= 8.5\ngini = 0.025\nsamples = 13331\nvalue = [13160, 171]\nclass = No"] ;
525 -> 526 ;
527 [label="age <= 19.5\ngini = 0.016\nsamples = 11930\nvalue = [11832, 98]\nclass = No"] ;
526 -> 527 ;
528 [label="balance <= 54.0\ngini = 0.48\nsamples = 5\nvalue = [2, 3]\nclass = Yes"] ;
527 -> 528 ;
529 [label="gini = 0.0\nsamples = 2\nvalue = [2, 0]\nclass = No"] ;
528 -> 529 ;
530 [label="gini = 0.0\nsamples = 3\nvalue = [0, 3]\nclass = Yes"] ;
528 -> 530 ;
531 [label="pdays <= 0.0\ngini = 0.016\nsamples = 11925\nvalue = [11830, 95]\nclass = No"] ;
527 -> 531 ;
532 [label="day <= 1.5\ngini = 0.015\nsamples = 11909\nvalue = [11819, 90]\nclass = No"] ;
531 -> 532 ;
533 [label="balance <= 4843.0\ngini = 0.223\nsamples = 47\nvalue = [41, 6]\nclass = No"] ;
532 -> 533 ;
534 [label="contact <= 0.0\ngini = 0.162\nsamples = 45\nvalue = [41, 4]\nclass = No"] ;
533 -> 534 ;
535 [label="gini = 0.0\nsamples = 28\nvalue = [28, 0]\nclass = No"] ;
534 -> 535 ;
536 [label="age <= 38.0\ngini = 0.36\nsamples = 17\nvalue = [13, 4]\nclass = No"] ;
534 -> 536 ;
537 [label="duration <= 137.0\ngini = 0.444\nsamples = 3\nvalue = [1, 2]\nclass = Yes"] ;
536 -> 537 ;
538 [label="gini = 0.0\nsamples = 1\nvalue = [1, 0]\nclass = No"] ;
537 -> 538 ;
539 [label="gini = 0.0\nsamples = 2\nvalue = [0, 2]\nclass = Yes"] ;
537 -> 539 ;
540 [label="job_blue-collar <= 0.5\ngini = 0.245\nsamples = 14\nvalue = [12, 2]\nclass = No"] ;
536 -> 540 ;
541 [label="balance <= 616.0\ngini = 0.142\nsamples = 13\nvalue = [12, 1]\nclass = No"] ;
540 -> 541 ;
542 [label="balance <= 336.5\ngini = 0.375\nsamples = 4\nvalue = [3, 1]\nclass = No"] ;
541 -> 542 ;
543 [label="gini = 0.0\nsamples = 3\nvalue = [3, 0]\nclass = No"] ;
542 -> 543 ;
544 [label="gini = 0.0\nsamples = 1\nvalue = [0, 1]\nclass = Yes"] ;
542 -> 544 ;
545 [label="gini = 0.0\nsamples = 9\nvalue = [9, 0]\nclass = No"] ;
541 -> 545 ;
546 [label="gini = 0.0\nsamples = 1\nvalue = [0, 1]\nclass = Yes"] ;
540 -> 546 ;
547 [label="gini = 0.0\nsamples = 2\nvalue = [0, 2]\nclass = Yes"] ;
533 -> 547 ;
548 [label="duration <= 149.5\ngini = 0.014\nsamples = 11862\nvalue = [11778, 84]\nclass = No"] ;
532 -> 548 ;
549 [label="age <= 28.5\ngini = 0.006\nsamples = 8407\nvalue = [8381, 26]\nclass = No"] ;
548 -> 549 ;
550 [label="housing_no <= 0.5\ngini = 0.035\nsamples = 612\nvalue = [601, 11]\nclass = No"] ;
549 -> 550 ;
551 [label="job_admin. <= 0.5\ngini = 0.005\nsamples = 404\nvalue = [403, 1]\nclass = No"] ;
550 -> 551 ;
552 [label="gini = 0.0\nsamples = 340\nvalue = [340, 0]\nclass = No"] ;
551 -> 552 ;
553 [label="education <= 2.5\ngini = 0.031\nsamples = 64\nvalue = [63, 1]\nclass = No"] ;
551 -> 553 ;
554 [label="gini = 0.0\nsamples = 55\nvalue = [55, 0]\nclass = No"] ;
553 -> 554 ;
555 [label="balance <= 1.0\ngini = 0.198\nsamples = 9\nvalue = [8, 1]\nclass = No"] ;
553 -> 555 ;
556 [label="age <= 25.0\ngini = 0.5\nsamples = 2\nvalue = [1, 1]\nclass = No"] ;
555 -> 556 ;
557 [label="gini = 0.0\nsamples = 1\nvalue = [0, 1]\nclass = Yes"] ;
556 -> 557 ;
558 [label="gini = 0.0\nsamples = 1\nvalue = [1, 0]\nclass = No"] ;
556 -> 558 ;
559 [label="gini = 0.0\nsamples = 7\nvalue = [7, 0]\nclass = No"] ;
555 -> 559 ;
560 [label="duration <= 115.5\ngini = 0.092\nsamples = 208\nvalue = [198, 10]\nclass = No"] ;
550 -> 560 ;
561 [label="age <= 20.5\ngini = 0.039\nsamples = 149\nvalue = [146, 3]\nclass = No"] ;
560 -> 561 ;
562 [label="contact <= 0.0\ngini = 0.278\nsamples = 6\nvalue = [5, 1]\nclass = No"] ;
561 -> 562 ;
563 [label="month <= 7.0\ngini = 0.5\nsamples = 2\nvalue = [1, 1]\nclass = No"] ;
562 -> 563 ;
564 [label="gini = 0.0\nsamples = 1\nvalue = [0, 1]\nclass = Yes"] ;
563 -> 564 ;
565 [label="gini = 0.0\nsamples = 1\nvalue = [1, 0]\nclass = No"] ;
563 -> 565 ;
566 [label="gini = 0.0\nsamples = 4\nvalue = [4, 0]\nclass = No"] ;
562 -> 566 ;
567 [label="day <= 4.5\ngini = 0.028\nsamples = 143\nvalue = [141, 2]\nclass = No"] ;
561 -> 567 ;
568 [label="job_services <= 0.5\ngini = 0.133\nsamples = 14\nvalue = [13, 1]\nclass = No"] ;
567 -> 568 ;
569 [label="gini = 0.0\nsamples = 13\nvalue = [13, 0]\nclass = No"] ;
568 -> 569 ;
570 [label="gini = 0.0\nsamples = 1\nvalue = [0, 1]\nclass = Yes"] ;
568 -> 570 ;
571 [label="job_admin. <= 0.5\ngini = 0.015\nsamples = 129\nvalue = [128, 1]\nclass = No"] ;
567 -> 571 ;
572 [label="gini = 0.0\nsamples = 109\nvalue = [109, 0]\nclass = No"] ;
571 -> 572 ;
573 [label="education <= 2.5\ngini = 0.095\nsamples = 20\nvalue = [19, 1]\nclass = No"] ;
571 -> 573 ;
574 [label="gini = 0.0\nsamples = 17\nvalue = [17, 0]\nclass = No"] ;
573 -> 574 ;
575 [label="campaign <= 1.5\ngini = 0.444\nsamples = 3\nvalue = [2, 1]\nclass = No"] ;
573 -> 575 ;
576 [label="gini = 0.0\nsamples = 2\nvalue = [2, 0]\nclass = No"] ;
575 -> 576 ;
577 [label="gini = 0.0\nsamples = 1\nvalue = [0, 1]\nclass = Yes"] ;
575 -> 577 ;
578 [label="job_unemployed <= 0.5\ngini = 0.209\nsamples = 59\nvalue = [52, 7]\nclass = No"] ;
560 -> 578 ;
579 [label="duration <= 129.5\ngini = 0.185\nsamples = 58\nvalue = [52, 6]\nclass = No"] ;
578 -> 579 ;
580 [label="duration <= 123.5\ngini = 0.351\nsamples = 22\nvalue = [17, 5]\nclass = No"] ;
579 -> 580 ;
581 [label="duration <= 116.5\ngini = 0.142\nsamples = 13\nvalue = [12, 1]\nclass = No"] ;
580 -> 581 ;
582 [label="month <= 7.5\ngini = 0.5\nsamples = 2\nvalue = [1, 1]\nclass = No"] ;
581 -> 582 ;
583 [label="gini = 0.0\nsamples = 1\nvalue = [1, 0]\nclass = No"] ;
582 -> 583 ;
584 [label="gini = 0.0\nsamples = 1\nvalue = [0, 1]\nclass = Yes"] ;
582 -> 584 ;
585 [label="gini = 0.0\nsamples = 11\nvalue = [11, 0]\nclass = No"] ;
581 -> 585 ;
586 [label="month <= 6.5\ngini = 0.494\nsamples = 9\nvalue = [5, 4]\nclass = No"] ;
580 -> 586 ;
587 [label="contact <= 0.0\ngini = 0.375\nsamples = 4\nvalue = [1, 3]\nclass = Yes"] ;
586 -> 587 ;
588 [label="gini = 0.0\nsamples = 1\nvalue = [1, 0]\nclass = No"] ;
587 -> 588 ;
589 [label="gini = 0.0\nsamples = 3\nvalue = [0, 3]\nclass = Yes"] ;
587 -> 589 ;
590 [label="job_blue-collar <= 0.5\ngini = 0.32\nsamples = 5\nvalue = [4, 1]\nclass = No"] ;
586 -> 590 ;
591 [label="gini = 0.0\nsamples = 4\nvalue = [4, 0]\nclass = No"] ;
590 -> 591 ;
592 [label="gini = 0.0\nsamples = 1\nvalue = [0, 1]\nclass = Yes"] ;
590 -> 592 ;
593 [label="job_management <= 0.5\ngini = 0.054\nsamples = 36\nvalue = [35, 1]\nclass = No"] ;
579 -> 593 ;
594 [label="gini = 0.0\nsamples = 31\nvalue = [31, 0]\nclass = No"] ;
593 -> 594 ;
595 [label="day <= 12.0\ngini = 0.32\nsamples = 5\nvalue = [4, 1]\nclass = No"] ;
593 -> 595 ;
596 [label="gini = 0.0\nsamples = 3\nvalue = [3, 0]\nclass = No"] ;
595 -> 596 ;
597 [label="loan_yes <= 0.5\ngini = 0.5\nsamples = 2\nvalue = [1, 1]\nclass = No"] ;
595 -> 597 ;
598 [label="gini = 0.0\nsamples = 1\nvalue = [0, 1]\nclass = Yes"] ;
597 -> 598 ;
599 [label="gini = 0.0\nsamples = 1\nvalue = [1, 0]\nclass = No"] ;
597 -> 599 ;
600 [label="gini = 0.0\nsamples = 1\nvalue = [0, 1]\nclass = Yes"] ;
578 -> 600 ;
601 [label="day <= 3.5\ngini = 0.004\nsamples = 7795\nvalue = [7780, 15]\nclass = No"] ;
549 -> 601 ;
602 [label="contact <= 0.0\ngini = 0.032\nsamples = 244\nvalue = [240, 4]\nclass = No"] ;
601 -> 602 ;
603 [label="gini = 0.0\nsamples = 208\nvalue = [208, 0]\nclass = No"] ;
602 -> 603 ;
604 [label="duration <= 139.0\ngini = 0.198\nsamples = 36\nvalue = [32, 4]\nclass = No"] ;
602 -> 604 ;
605 [label="age <= 34.5\ngini = 0.114\nsamples = 33\nvalue = [31, 2]\nclass = No"] ;
604 -> 605 ;
606 [label="marital <= 1.5\ngini = 0.26\nsamples = 13\nvalue = [11, 2]\nclass = No"] ;
605 -> 606 ;
607 [label="gini = 0.0\nsamples = 8\nvalue = [8, 0]\nclass = No"] ;
606 -> 607 ;
608 [label="housing_yes <= 0.5\ngini = 0.48\nsamples = 5\nvalue = [3, 2]\nclass = No"] ;
606 -> 608 ;
609 [label="age <= 30.5\ngini = 0.444\nsamples = 3\nvalue = [1, 2]\nclass = Yes"] ;
608 -> 609 ;
610 [label="gini = 0.0\nsamples = 1\nvalue = [1, 0]\nclass = No"] ;
609 -> 610 ;
611 [label="gini = 0.0\nsamples = 2\nvalue = [0, 2]\nclass = Yes"] ;
609 -> 611 ;
612 [label="gini = 0.0\nsamples = 2\nvalue = [2, 0]\nclass = No"] ;
608 -> 612 ;
613 [label="gini = 0.0\nsamples = 20\nvalue = [20, 0]\nclass = No"] ;
605 -> 613 ;
614 [label="campaign <= 1.5\ngini = 0.444\nsamples = 3\nvalue = [1, 2]\nclass = Yes"] ;
604 -> 614 ;
615 [label="gini = 0.0\nsamples = 1\nvalue = [1, 0]\nclass = No"] ;
614 -> 615 ;
616 [label="gini = 0.0\nsamples = 2\nvalue = [0, 2]\nclass = Yes"] ;
614 -> 616 ;
617 [label="balance <= 150.5\ngini = 0.003\nsamples = 7551\nvalue = [7540, 11]\nclass = No"] ;
601 -> 617 ;
618 [label="gini = 0.0\nsamples = 2788\nvalue = [2788, 0]\nclass = No"] ;
617 -> 618 ;
619 [label="balance <= 151.5\ngini = 0.005\nsamples = 4763\nvalue = [4752, 11]\nclass = No"] ;
617 -> 619 ;
620 [label="day <= 8.5\ngini = 0.219\nsamples = 8\nvalue = [7, 1]\nclass = No"] ;
619 -> 620 ;
621 [label="day <= 7.0\ngini = 0.5\nsamples = 2\nvalue = [1, 1]\nclass = No"] ;
620 -> 621 ;
622 [label="gini = 0.0\nsamples = 1\nvalue = [1, 0]\nclass = No"] ;
621 -> 622 ;
623 [label="gini = 0.0\nsamples = 1\nvalue = [0, 1]\nclass = Yes"] ;
621 -> 623 ;
624 [label="gini = 0.0\nsamples = 6\nvalue = [6, 0]\nclass = No"] ;
620 -> 624 ;
625 [label="campaign <= 1.5\ngini = 0.004\nsamples = 4755\nvalue = [4745, 10]\nclass = No"] ;
619 -> 625 ;
626 [label="day <= 30.5\ngini = 0.009\nsamples = 1309\nvalue = [1303, 6]\nclass = No"] ;
625 -> 626 ;
627 [label="balance <= 196.5\ngini = 0.008\nsamples = 1303\nvalue = [1298, 5]\nclass = No"] ;
626 -> 627 ;
628 [label="balance <= 195.0\ngini = 0.048\nsamples = 82\nvalue = [80, 2]\nclass = No"] ;
627 -> 628 ;
629 [label="contact <= 1.5\ngini = 0.025\nsamples = 79\nvalue = [78, 1]\nclass = No"] ;
628 -> 629 ;
630 [label="gini = 0.0\nsamples = 74\nvalue = [74, 0]\nclass = No"] ;
629 -> 630 ;
631 [label="balance <= 178.0\ngini = 0.32\nsamples = 5\nvalue = [4, 1]\nclass = No"] ;
629 -> 631 ;
632 [label="gini = 0.0\nsamples = 3\nvalue = [3, 0]\nclass = No"] ;
631 -> 632 ;
633 [label="housing_yes <= 0.5\ngini = 0.5\nsamples = 2\nvalue = [1, 1]\nclass = No"] ;
631 -> 633 ;
634 [label="gini = 0.0\nsamples = 1\nvalue = [1, 0]\nclass = No"] ;
633 -> 634 ;
635 [label="gini = 0.0\nsamples = 1\nvalue = [0, 1]\nclass = Yes"] ;
633 -> 635 ;
636 [label="day <= 20.0\ngini = 0.444\nsamples = 3\nvalue = [2, 1]\nclass = No"] ;
628 -> 636 ;
637 [label="gini = 0.0\nsamples = 2\nvalue = [2, 0]\nclass = No"] ;
636 -> 637 ;
638 [label="gini = 0.0\nsamples = 1\nvalue = [0, 1]\nclass = Yes"] ;
636 -> 638 ;
639 [label="age <= 34.5\ngini = 0.005\nsamples = 1221\nvalue = [1218, 3]\nclass = No"] ;
627 -> 639 ;
640 [label="education <= 0.0\ngini = 0.024\nsamples = 242\nvalue = [239, 3]\nclass = No"] ;
639 -> 640 ;
641 [label="day <= 27.0\ngini = 0.32\nsamples = 5\nvalue = [4, 1]\nclass = No"] ;
640 -> 641 ;
642 [label="gini = 0.0\nsamples = 4\nvalue = [4, 0]\nclass = No"] ;
641 -> 642 ;
643 [label="gini = 0.0\nsamples = 1\nvalue = [0, 1]\nclass = Yes"] ;
641 -> 643 ;
644 [label="balance <= 7041.0\ngini = 0.017\nsamples = 237\nvalue = [235, 2]\nclass = No"] ;
640 -> 644 ;
645 [label="job_management <= 0.5\ngini = 0.009\nsamples = 227\nvalue = [226, 1]\nclass = No"] ;
644 -> 645 ;
646 [label="gini = 0.0\nsamples = 176\nvalue = [176, 0]\nclass = No"] ;
645 -> 646 ;
647 [label="duration <= 94.5\ngini = 0.038\nsamples = 51\nvalue = [50, 1]\nclass = No"] ;
645 -> 647 ;
648 [label="gini = 0.0\nsamples = 31\nvalue = [31, 0]\nclass = No"] ;
647 -> 648 ;
649 [label="duration <= 97.0\ngini = 0.095\nsamples = 20\nvalue = [19, 1]\nclass = No"] ;
647 -> 649 ;
650 [label="gini = 0.0\nsamples = 1\nvalue = [0, 1]\nclass = Yes"] ;
649 -> 650 ;
651 [label="gini = 0.0\nsamples = 19\nvalue = [19, 0]\nclass = No"] ;
649 -> 651 ;
652 [label="balance <= 7247.0\ngini = 0.18\nsamples = 10\nvalue = [9, 1]\nclass = No"] ;
644 -> 652 ;
653 [label="gini = 0.0\nsamples = 1\nvalue = [0, 1]\nclass = Yes"] ;
652 -> 653 ;
654 [label="gini = 0.0\nsamples = 9\nvalue = [9, 0]\nclass = No"] ;
652 -> 654 ;
655 [label="gini = 0.0\nsamples = 979\nvalue = [979, 0]\nclass = No"] ;
639 -> 655 ;
656 [label="loan_yes <= 0.5\ngini = 0.278\nsamples = 6\nvalue = [5, 1]\nclass = No"] ;
626 -> 656 ;
657 [label="gini = 0.0\nsamples = 5\nvalue = [5, 0]\nclass = No"] ;
656 -> 657 ;
658 [label="gini = 0.0\nsamples = 1\nvalue = [0, 1]\nclass = Yes"] ;
656 -> 658 ;
659 [label="day <= 4.5\ngini = 0.002\nsamples = 3446\nvalue = [3442, 4]\nclass = No"] ;
625 -> 659 ;
660 [label="job_admin. <= 0.5\ngini = 0.029\nsamples = 67\nvalue = [66, 1]\nclass = No"] ;
659 -> 660 ;
661 [label="gini = 0.0\nsamples = 58\nvalue = [58, 0]\nclass = No"] ;
660 -> 661 ;
662 [label="balance <= 1599.0\ngini = 0.198\nsamples = 9\nvalue = [8, 1]\nclass = No"] ;
660 -> 662 ;
663 [label="gini = 0.0\nsamples = 7\nvalue = [7, 0]\nclass = No"] ;
662 -> 663 ;
664 [label="month <= 7.0\ngini = 0.5\nsamples = 2\nvalue = [1, 1]\nclass = No"] ;
662 -> 664 ;
665 [label="gini = 0.0\nsamples = 1\nvalue = [0, 1]\nclass = Yes"] ;
664 -> 665 ;
666 [label="gini = 0.0\nsamples = 1\nvalue = [1, 0]\nclass = No"] ;
664 -> 666 ;
667 [label="balance <= 295.5\ngini = 0.002\nsamples = 3379\nvalue = [3376, 3]\nclass = No"] ;
659 -> 667 ;
668 [label="balance <= 294.5\ngini = 0.008\nsamples = 508\nvalue = [506, 2]\nclass = No"] ;
667 -> 668 ;
669 [label="age <= 31.5\ngini = 0.004\nsamples = 503\nvalue = [502, 1]\nclass = No"] ;
668 -> 669 ;
670 [label="day <= 8.5\ngini = 0.036\nsamples = 55\nvalue = [54, 1]\nclass = No"] ;
669 -> 670 ;
671 [label="job_technician <= 0.5\ngini = 0.18\nsamples = 10\nvalue = [9, 1]\nclass = No"] ;
670 -> 671 ;
672 [label="gini = 0.0\nsamples = 9\nvalue = [9, 0]\nclass = No"] ;
671 -> 672 ;
673 [label="gini = 0.0\nsamples = 1\nvalue = [0, 1]\nclass = Yes"] ;
671 -> 673 ;
674 [label="gini = 0.0\nsamples = 45\nvalue = [45, 0]\nclass = No"] ;
670 -> 674 ;
675 [label="gini = 0.0\nsamples = 448\nvalue = [448, 0]\nclass = No"] ;
669 -> 675 ;
676 [label="marital <= 2.5\ngini = 0.32\nsamples = 5\nvalue = [4, 1]\nclass = No"] ;
668 -> 676 ;
677 [label="gini = 0.0\nsamples = 4\nvalue = [4, 0]\nclass = No"] ;
676 -> 677 ;
678 [label="gini = 0.0\nsamples = 1\nvalue = [0, 1]\nclass = Yes"] ;
676 -> 678 ;
679 [label="balance <= 2668.5\ngini = 0.001\nsamples = 2871\nvalue = [2870, 1]\nclass = No"] ;
667 -> 679 ;
680 [label="gini = 0.0\nsamples = 2228\nvalue = [2228, 0]\nclass = No"] ;
679 -> 680 ;
681 [label="balance <= 2672.5\ngini = 0.003\nsamples = 643\nvalue = [642, 1]\nclass = No"] ;
679 -> 681 ;
682 [label="campaign <= 6.5\ngini = 0.5\nsamples = 2\nvalue = [1, 1]\nclass = No"] ;
681 -> 682 ;
683 [label="gini = 0.0\nsamples = 1\nvalue = [0, 1]\nclass = Yes"] ;
682 -> 683 ;
684 [label="gini = 0.0\nsamples = 1\nvalue = [1, 0]\nclass = No"] ;
682 -> 684 ;
685 [label="gini = 0.0\nsamples = 641\nvalue = [641, 0]\nclass = No"] ;
681 -> 685 ;
686 [label="housing_yes <= 0.5\ngini = 0.033\nsamples = 3455\nvalue = [3397, 58]\nclass = No"] ;
548 -> 686 ;
687 [label="day <= 5.5\ngini = 0.07\nsamples = 1404\nvalue = [1353, 51]\nclass = No"] ;
686 -> 687 ;
688 [label="contact <= 0.0\ngini = 0.227\nsamples = 153\nvalue = [133, 20]\nclass = No"] ;
687 -> 688 ;
689 [label="duration <= 207.0\ngini = 0.03\nsamples = 65\nvalue = [64, 1]\nclass = No"] ;
688 -> 689 ;
690 [label="gini = 0.0\nsamples = 58\nvalue = [58, 0]\nclass = No"] ;
689 -> 690 ;
691 [label="balance <= 1177.0\ngini = 0.245\nsamples = 7\nvalue = [6, 1]\nclass = No"] ;
689 -> 691 ;
692 [label="gini = 0.0\nsamples = 5\nvalue = [5, 0]\nclass = No"] ;
691 -> 692 ;
693 [label="campaign <= 2.0\ngini = 0.5\nsamples = 2\nvalue = [1, 1]\nclass = No"] ;
691 -> 693 ;
694 [label="gini = 0.0\nsamples = 1\nvalue = [0, 1]\nclass = Yes"] ;
693 -> 694 ;
695 [label="gini = 0.0\nsamples = 1\nvalue = [1, 0]\nclass = No"] ;
693 -> 695 ;
696 [label="month <= 7.5\ngini = 0.339\nsamples = 88\nvalue = [69, 19]\nclass = No"] ;
688 -> 696 ;
697 [label="duration <= 158.5\ngini = 0.462\nsamples = 47\nvalue = [30, 17]\nclass = No"] ;
696 -> 697 ;
698 [label="gini = 0.0\nsamples = 8\nvalue = [8, 0]\nclass = No"] ;
697 -> 698 ;
699 [label="duration <= 166.5\ngini = 0.492\nsamples = 39\nvalue = [22, 17]\nclass = No"] ;
697 -> 699 ;
700 [label="gini = 0.0\nsamples = 3\nvalue = [0, 3]\nclass = Yes"] ;
699 -> 700 ;
701 [label="contact <= 1.5\ngini = 0.475\nsamples = 36\nvalue = [22, 14]\nclass = No"] ;
699 -> 701 ;
702 [label="campaign <= 2.5\ngini = 0.457\nsamples = 34\nvalue = [22, 12]\nclass = No"] ;
701 -> 702 ;
703 [label="age <= 54.5\ngini = 0.48\nsamples = 30\nvalue = [18, 12]\nclass = No"] ;
702 -> 703 ;
704 [label="age <= 49.0\ngini = 0.497\nsamples = 26\nvalue = [14, 12]\nclass = No"] ;
703 -> 704 ;
705 [label="job_management <= 0.5\ngini = 0.476\nsamples = 23\nvalue = [14, 9]\nclass = No"] ;
704 -> 705 ;
706 [label="marital <= 1.5\ngini = 0.498\nsamples = 17\nvalue = [8, 9]\nclass = Yes"] ;
705 -> 706 ;
707 [label="age <= 24.5\ngini = 0.346\nsamples = 9\nvalue = [2, 7]\nclass = Yes"] ;
706 -> 707 ;
708 [label="day <= 4.5\ngini = 0.444\nsamples = 3\nvalue = [2, 1]\nclass = No"] ;
707 -> 708 ;
709 [label="gini = 0.0\nsamples = 2\nvalue = [2, 0]\nclass = No"] ;
708 -> 709 ;
710 [label="gini = 0.0\nsamples = 1\nvalue = [0, 1]\nclass = Yes"] ;
708 -> 710 ;
711 [label="gini = 0.0\nsamples = 6\nvalue = [0, 6]\nclass = Yes"] ;
707 -> 711 ;
712 [label="day <= 2.5\ngini = 0.375\nsamples = 8\nvalue = [6, 2]\nclass = No"] ;
706 -> 712 ;
713 [label="job_blue-collar <= 0.5\ngini = 0.444\nsamples = 3\nvalue = [1, 2]\nclass = Yes"] ;
712 -> 713 ;
714 [label="gini = 0.0\nsamples = 1\nvalue = [1, 0]\nclass = No"] ;
713 -> 714 ;
715 [label="gini = 0.0\nsamples = 2\nvalue = [0, 2]\nclass = Yes"] ;
713 -> 715 ;
716 [label="gini = 0.0\nsamples = 5\nvalue = [5, 0]\nclass = No"] ;
712 -> 716 ;
717 [label="gini = 0.0\nsamples = 6\nvalue = [6, 0]\nclass = No"] ;
705 -> 717 ;
718 [label="gini = 0.0\nsamples = 3\nvalue = [0, 3]\nclass = Yes"] ;
704 -> 718 ;
719 [label="gini = 0.0\nsamples = 4\nvalue = [4, 0]\nclass = No"] ;
703 -> 719 ;
720 [label="gini = 0.0\nsamples = 4\nvalue = [4, 0]\nclass = No"] ;
702 -> 720 ;
721 [label="gini = 0.0\nsamples = 2\nvalue = [0, 2]\nclass = Yes"] ;
701 -> 721 ;
722 [label="marital <= 2.5\ngini = 0.093\nsamples = 41\nvalue = [39, 2]\nclass = No"] ;
696 -> 722 ;
723 [label="gini = 0.0\nsamples = 37\nvalue = [37, 0]\nclass = No"] ;
722 -> 723 ;
724 [label="age <= 49.5\ngini = 0.5\nsamples = 4\nvalue = [2, 2]\nclass = No"] ;
722 -> 724 ;
725 [label="gini = 0.0\nsamples = 2\nvalue = [0, 2]\nclass = Yes"] ;
724 -> 725 ;
726 [label="gini = 0.0\nsamples = 2\nvalue = [2, 0]\nclass = No"] ;
724 -> 726 ;
727 [label="age <= 25.5\ngini = 0.048\nsamples = 1251\nvalue = [1220, 31]\nclass = No"] ;
687 -> 727 ;
728 [label="duration <= 209.0\ngini = 0.42\nsamples = 20\nvalue = [14, 6]\nclass = No"] ;
727 -> 728 ;
729 [label="age <= 20.5\ngini = 0.305\nsamples = 16\nvalue = [13, 3]\nclass = No"] ;
728 -> 729 ;
730 [label="gini = 0.0\nsamples = 1\nvalue = [0, 1]\nclass = Yes"] ;
729 -> 730 ;
731 [label="education <= 2.5\ngini = 0.231\nsamples = 15\nvalue = [13, 2]\nclass = No"] ;
729 -> 731 ;
732 [label="duration <= 153.5\ngini = 0.142\nsamples = 13\nvalue = [12, 1]\nclass = No"] ;
731 -> 732 ;
733 [label="job_student <= 0.5\ngini = 0.5\nsamples = 2\nvalue = [1, 1]\nclass = No"] ;
732 -> 733 ;
734 [label="gini = 0.0\nsamples = 1\nvalue = [1, 0]\nclass = No"] ;
733 -> 734 ;
735 [label="gini = 0.0\nsamples = 1\nvalue = [0, 1]\nclass = Yes"] ;
733 -> 735 ;
736 [label="gini = 0.0\nsamples = 11\nvalue = [11, 0]\nclass = No"] ;
732 -> 736 ;
737 [label="day <= 13.0\ngini = 0.5\nsamples = 2\nvalue = [1, 1]\nclass = No"] ;
731 -> 737 ;
738 [label="gini = 0.0\nsamples = 1\nvalue = [1, 0]\nclass = No"] ;
737 -> 738 ;
739 [label="gini = 0.0\nsamples = 1\nvalue = [0, 1]\nclass = Yes"] ;
737 -> 739 ;
740 [label="education <= 0.5\ngini = 0.375\nsamples = 4\nvalue = [1, 3]\nclass = Yes"] ;
728 -> 740 ;
741 [label="gini = 0.0\nsamples = 1\nvalue = [1, 0]\nclass = No"] ;
740 -> 741 ;
742 [label="gini = 0.0\nsamples = 3\nvalue = [0, 3]\nclass = Yes"] ;
740 -> 742 ;
743 [label="balance <= 12789.5\ngini = 0.04\nsamples = 1231\nvalue = [1206, 25]\nclass = No"] ;
727 -> 743 ;
744 [label="balance <= 104.5\ngini = 0.036\nsamples = 1215\nvalue = [1193, 22]\nclass = No"] ;
743 -> 744 ;
745 [label="gini = 0.0\nsamples = 430\nvalue = [430, 0]\nclass = No"] ;
744 -> 745 ;
746 [label="balance <= 106.5\ngini = 0.054\nsamples = 785\nvalue = [763, 22]\nclass = No"] ;
744 -> 746 ;
747 [label="job_management <= 0.5\ngini = 0.5\nsamples = 2\nvalue = [1, 1]\nclass = No"] ;
746 -> 747 ;
748 [label="gini = 0.0\nsamples = 1\nvalue = [0, 1]\nclass = Yes"] ;
747 -> 748 ;
749 [label="gini = 0.0\nsamples = 1\nvalue = [1, 0]\nclass = No"] ;
747 -> 749 ;
750 [label="education <= 2.5\ngini = 0.052\nsamples = 783\nvalue = [762, 21]\nclass = No"] ;
746 -> 750 ;
751 [label="age <= 37.5\ngini = 0.029\nsamples = 537\nvalue = [529, 8]\nclass = No"] ;
750 -> 751 ;
752 [label="education <= 0.0\ngini = 0.068\nsamples = 141\nvalue = [136, 5]\nclass = No"] ;
751 -> 752 ;
753 [label="month <= 6.5\ngini = 0.444\nsamples = 6\nvalue = [4, 2]\nclass = No"] ;
752 -> 753 ;
754 [label="month <= 5.5\ngini = 0.444\nsamples = 3\nvalue = [1, 2]\nclass = Yes"] ;
753 -> 754 ;
755 [label="gini = 0.0\nsamples = 1\nvalue = [1, 0]\nclass = No"] ;
754 -> 755 ;
756 [label="gini = 0.0\nsamples = 2\nvalue = [0, 2]\nclass = Yes"] ;
754 -> 756 ;
757 [label="gini = 0.0\nsamples = 3\nvalue = [3, 0]\nclass = No"] ;
753 -> 757 ;
758 [label="duration <= 150.5\ngini = 0.043\nsamples = 135\nvalue = [132, 3]\nclass = No"] ;
752 -> 758 ;
759 [label="month <= 7.5\ngini = 0.375\nsamples = 4\nvalue = [3, 1]\nclass = No"] ;
758 -> 759 ;
760 [label="gini = 0.0\nsamples = 3\nvalue = [3, 0]\nclass = No"] ;
759 -> 760 ;
761 [label="gini = 0.0\nsamples = 1\nvalue = [0, 1]\nclass = Yes"] ;
759 -> 761 ;
762 [label="marital <= 2.5\ngini = 0.03\nsamples = 131\nvalue = [129, 2]\nclass = No"] ;
758 -> 762 ;
763 [label="balance <= 158.0\ngini = 0.017\nsamples = 120\nvalue = [119, 1]\nclass = No"] ;
762 -> 763 ;
764 [label="balance <= 152.5\ngini = 0.165\nsamples = 11\nvalue = [10, 1]\nclass = No"] ;
763 -> 764 ;
765 [label="gini = 0.0\nsamples = 10\nvalue = [10, 0]\nclass = No"] ;
764 -> 765 ;
766 [label="gini = 0.0\nsamples = 1\nvalue = [0, 1]\nclass = Yes"] ;
764 -> 766 ;
767 [label="gini = 0.0\nsamples = 109\nvalue = [109, 0]\nclass = No"] ;
763 -> 767 ;
768 [label="job_blue-collar <= 0.5\ngini = 0.165\nsamples = 11\nvalue = [10, 1]\nclass = No"] ;
762 -> 768 ;
769 [label="gini = 0.0\nsamples = 9\nvalue = [9, 0]\nclass = No"] ;
768 -> 769 ;
770 [label="month <= 7.0\ngini = 0.5\nsamples = 2\nvalue = [1, 1]\nclass = No"] ;
768 -> 770 ;
771 [label="gini = 0.0\nsamples = 1\nvalue = [1, 0]\nclass = No"] ;
770 -> 771 ;
772 [label="gini = 0.0\nsamples = 1\nvalue = [0, 1]\nclass = Yes"] ;
770 -> 772 ;
773 [label="job_retired <= 0.5\ngini = 0.015\nsamples = 396\nvalue = [393, 3]\nclass = No"] ;
751 -> 773 ;
774 [label="month <= 5.5\ngini = 0.006\nsamples = 352\nvalue = [351, 1]\nclass = No"] ;
773 -> 774 ;
775 [label="marital <= 1.5\ngini = 0.087\nsamples = 22\nvalue = [21, 1]\nclass = No"] ;
774 -> 775 ;
776 [label="job_admin. <= 0.5\ngini = 0.5\nsamples = 2\nvalue = [1, 1]\nclass = No"] ;
775 -> 776 ;
777 [label="gini = 0.0\nsamples = 1\nvalue = [0, 1]\nclass = Yes"] ;
776 -> 777 ;
778 [label="gini = 0.0\nsamples = 1\nvalue = [1, 0]\nclass = No"] ;
776 -> 778 ;
779 [label="gini = 0.0\nsamples = 20\nvalue = [20, 0]\nclass = No"] ;
775 -> 779 ;
780 [label="gini = 0.0\nsamples = 330\nvalue = [330, 0]\nclass = No"] ;
774 -> 780 ;
781 [label="month <= 7.5\ngini = 0.087\nsamples = 44\nvalue = [42, 2]\nclass = No"] ;
773 -> 781 ;
782 [label="gini = 0.0\nsamples = 31\nvalue = [31, 0]\nclass = No"] ;
781 -> 782 ;
783 [label="duration <= 188.0\ngini = 0.26\nsamples = 13\nvalue = [11, 2]\nclass = No"] ;
781 -> 783 ;
784 [label="gini = 0.0\nsamples = 9\nvalue = [9, 0]\nclass = No"] ;
783 -> 784 ;
785 [label="duration <= 195.5\ngini = 0.5\nsamples = 4\nvalue = [2, 2]\nclass = No"] ;
783 -> 785 ;
786 [label="gini = 0.0\nsamples = 2\nvalue = [0, 2]\nclass = Yes"] ;
785 -> 786 ;
787 [label="gini = 0.0\nsamples = 2\nvalue = [2, 0]\nclass = No"] ;
785 -> 787 ;
788 [label="month <= 6.5\ngini = 0.1\nsamples = 246\nvalue = [233, 13]\nclass = No"] ;
750 -> 788 ;
789 [label="contact <= 0.0\ngini = 0.233\nsamples = 67\nvalue = [58, 9]\nclass = No"] ;
788 -> 789 ;
790 [label="gini = 0.0\nsamples = 45\nvalue = [45, 0]\nclass = No"] ;
789 -> 790 ;
791 [label="age <= 31.5\ngini = 0.483\nsamples = 22\nvalue = [13, 9]\nclass = No"] ;
789 -> 791 ;
792 [label="gini = 0.0\nsamples = 8\nvalue = [8, 0]\nclass = No"] ;
791 -> 792 ;
793 [label="campaign <= 2.5\ngini = 0.459\nsamples = 14\nvalue = [5, 9]\nclass = Yes"] ;
791 -> 793 ;
794 [label="balance <= 7986.5\ngini = 0.375\nsamples = 12\nvalue = [3, 9]\nclass = Yes"] ;
793 -> 794 ;
795 [label="day <= 23.5\ngini = 0.298\nsamples = 11\nvalue = [2, 9]\nclass = Yes"] ;
794 -> 795 ;
796 [label="gini = 0.0\nsamples = 6\nvalue = [0, 6]\nclass = Yes"] ;
795 -> 796 ;
797 [label="job_management <= 0.5\ngini = 0.48\nsamples = 5\nvalue = [2, 3]\nclass = Yes"] ;
795 -> 797 ;
798 [label="gini = 0.0\nsamples = 2\nvalue = [0, 2]\nclass = Yes"] ;
797 -> 798 ;
799 [label="age <= 49.5\ngini = 0.444\nsamples = 3\nvalue = [2, 1]\nclass = No"] ;
797 -> 799 ;
800 [label="gini = 0.0\nsamples = 2\nvalue = [2, 0]\nclass = No"] ;
799 -> 800 ;
801 [label="gini = 0.0\nsamples = 1\nvalue = [0, 1]\nclass = Yes"] ;
799 -> 801 ;
802 [label="gini = 0.0\nsamples = 1\nvalue = [1, 0]\nclass = No"] ;
794 -> 802 ;
803 [label="gini = 0.0\nsamples = 2\nvalue = [2, 0]\nclass = No"] ;
793 -> 803 ;
804 [label="job_admin. <= 0.5\ngini = 0.044\nsamples = 179\nvalue = [175, 4]\nclass = No"] ;
788 -> 804 ;
805 [label="campaign <= 10.5\ngini = 0.034\nsamples = 176\nvalue = [173, 3]\nclass = No"] ;
804 -> 805 ;
806 [label="duration <= 156.5\ngini = 0.024\nsamples = 168\nvalue = [166, 2]\nclass = No"] ;
805 -> 806 ;
807 [label="duration <= 155.0\ngini = 0.111\nsamples = 17\nvalue = [16, 1]\nclass = No"] ;
806 -> 807 ;
808 [label="gini = 0.0\nsamples = 13\nvalue = [13, 0]\nclass = No"] ;
807 -> 808 ;
809 [label="day <= 15.5\ngini = 0.375\nsamples = 4\nvalue = [3, 1]\nclass = No"] ;
807 -> 809 ;
810 [label="day <= 11.5\ngini = 0.5\nsamples = 2\nvalue = [1, 1]\nclass = No"] ;
809 -> 810 ;
811 [label="gini = 0.0\nsamples = 1\nvalue = [1, 0]\nclass = No"] ;
810 -> 811 ;
812 [label="gini = 0.0\nsamples = 1\nvalue = [0, 1]\nclass = Yes"] ;
810 -> 812 ;
813 [label="gini = 0.0\nsamples = 2\nvalue = [2, 0]\nclass = No"] ;
809 -> 813 ;
814 [label="campaign <= 1.5\ngini = 0.013\nsamples = 151\nvalue = [150, 1]\nclass = No"] ;
806 -> 814 ;
815 [label="duration <= 193.0\ngini = 0.111\nsamples = 17\nvalue = [16, 1]\nclass = No"] ;
814 -> 815 ;
816 [label="gini = 0.0\nsamples = 14\nvalue = [14, 0]\nclass = No"] ;
815 -> 816 ;
817 [label="balance <= 1541.0\ngini = 0.444\nsamples = 3\nvalue = [2, 1]\nclass = No"] ;
815 -> 817 ;
818 [label="gini = 0.0\nsamples = 2\nvalue = [2, 0]\nclass = No"] ;
817 -> 818 ;
819 [label="gini = 0.0\nsamples = 1\nvalue = [0, 1]\nclass = Yes"] ;
817 -> 819 ;
820 [label="gini = 0.0\nsamples = 134\nvalue = [134, 0]\nclass = No"] ;
814 -> 820 ;
821 [label="campaign <= 11.5\ngini = 0.219\nsamples = 8\nvalue = [7, 1]\nclass = No"] ;
805 -> 821 ;
822 [label="gini = 0.0\nsamples = 1\nvalue = [0, 1]\nclass = Yes"] ;
821 -> 822 ;
823 [label="gini = 0.0\nsamples = 7\nvalue = [7, 0]\nclass = No"] ;
821 -> 823 ;
824 [label="day <= 7.5\ngini = 0.444\nsamples = 3\nvalue = [2, 1]\nclass = No"] ;
804 -> 824 ;
825 [label="gini = 0.0\nsamples = 1\nvalue = [0, 1]\nclass = Yes"] ;
824 -> 825 ;
826 [label="gini = 0.0\nsamples = 2\nvalue = [2, 0]\nclass = No"] ;
824 -> 826 ;
827 [label="marital <= 1.5\ngini = 0.305\nsamples = 16\nvalue = [13, 3]\nclass = No"] ;
743 -> 827 ;
828 [label="job_management <= 0.5\ngini = 0.444\nsamples = 3\nvalue = [1, 2]\nclass = Yes"] ;
827 -> 828 ;
829 [label="gini = 0.0\nsamples = 1\nvalue = [1, 0]\nclass = No"] ;
828 -> 829 ;
830 [label="gini = 0.0\nsamples = 2\nvalue = [0, 2]\nclass = Yes"] ;
828 -> 830 ;
831 [label="contact <= 1.5\ngini = 0.142\nsamples = 13\nvalue = [12, 1]\nclass = No"] ;
827 -> 831 ;
832 [label="gini = 0.0\nsamples = 12\nvalue = [12, 0]\nclass = No"] ;
831 -> 832 ;
833 [label="gini = 0.0\nsamples = 1\nvalue = [0, 1]\nclass = Yes"] ;
831 -> 833 ;
834 [label="balance <= 12178.5\ngini = 0.007\nsamples = 2051\nvalue = [2044, 7]\nclass = No"] ;
686 -> 834 ;
835 [label="duration <= 153.5\ngini = 0.006\nsamples = 2037\nvalue = [2031, 6]\nclass = No"] ;
834 -> 835 ;
836 [label="day <= 4.5\ngini = 0.038\nsamples = 154\nvalue = [151, 3]\nclass = No"] ;
835 -> 836 ;
837 [label="month <= 6.5\ngini = 0.153\nsamples = 12\nvalue = [11, 1]\nclass = No"] ;
836 -> 837 ;
838 [label="gini = 0.0\nsamples = 9\nvalue = [9, 0]\nclass = No"] ;
837 -> 838 ;
839 [label="age <= 38.0\ngini = 0.444\nsamples = 3\nvalue = [2, 1]\nclass = No"] ;
837 -> 839 ;
840 [label="gini = 0.0\nsamples = 2\nvalue = [2, 0]\nclass = No"] ;
839 -> 840 ;
841 [label="gini = 0.0\nsamples = 1\nvalue = [0, 1]\nclass = Yes"] ;
839 -> 841 ;
842 [label="marital <= 1.5\ngini = 0.028\nsamples = 142\nvalue = [140, 2]\nclass = No"] ;
836 -> 842 ;
843 [label="job_services <= 0.5\ngini = 0.093\nsamples = 41\nvalue = [39, 2]\nclass = No"] ;
842 -> 843 ;
844 [label="job_admin. <= 0.5\ngini = 0.054\nsamples = 36\nvalue = [35, 1]\nclass = No"] ;
843 -> 844 ;
845 [label="gini = 0.0\nsamples = 30\nvalue = [30, 0]\nclass = No"] ;
844 -> 845 ;
846 [label="duration <= 151.5\ngini = 0.278\nsamples = 6\nvalue = [5, 1]\nclass = No"] ;
844 -> 846 ;
847 [label="gini = 0.0\nsamples = 1\nvalue = [0, 1]\nclass = Yes"] ;
846 -> 847 ;
848 [label="gini = 0.0\nsamples = 5\nvalue = [5, 0]\nclass = No"] ;
846 -> 848 ;
849 [label="day <= 14.5\ngini = 0.32\nsamples = 5\nvalue = [4, 1]\nclass = No"] ;
843 -> 849 ;
850 [label="gini = 0.0\nsamples = 3\nvalue = [3, 0]\nclass = No"] ;
849 -> 850 ;
851 [label="month <= 6.0\ngini = 0.5\nsamples = 2\nvalue = [1, 1]\nclass = No"] ;
849 -> 851 ;
852 [label="gini = 0.0\nsamples = 1\nvalue = [0, 1]\nclass = Yes"] ;
851 -> 852 ;
853 [label="gini = 0.0\nsamples = 1\nvalue = [1, 0]\nclass = No"] ;
851 -> 853 ;
854 [label="gini = 0.0\nsamples = 101\nvalue = [101, 0]\nclass = No"] ;
842 -> 854 ;
855 [label="age <= 32.5\ngini = 0.003\nsamples = 1883\nvalue = [1880, 3]\nclass = No"] ;
835 -> 855 ;
856 [label="duration <= 162.5\ngini = 0.012\nsamples = 498\nvalue = [495, 3]\nclass = No"] ;
855 -> 856 ;
857 [label="contact <= 0.0\ngini = 0.05\nsamples = 78\nvalue = [76, 2]\nclass = No"] ;
856 -> 857 ;
858 [label="gini = 0.0\nsamples = 50\nvalue = [50, 0]\nclass = No"] ;
857 -> 858 ;
859 [label="duration <= 161.5\ngini = 0.133\nsamples = 28\nvalue = [26, 2]\nclass = No"] ;
857 -> 859 ;
860 [label="job_technician <= 0.5\ngini = 0.074\nsamples = 26\nvalue = [25, 1]\nclass = No"] ;
859 -> 860 ;
861 [label="gini = 0.0\nsamples = 23\nvalue = [23, 0]\nclass = No"] ;
860 -> 861 ;
862 [label="duration <= 158.5\ngini = 0.444\nsamples = 3\nvalue = [2, 1]\nclass = No"] ;
860 -> 862 ;
863 [label="gini = 0.0\nsamples = 2\nvalue = [2, 0]\nclass = No"] ;
862 -> 863 ;
864 [label="gini = 0.0\nsamples = 1\nvalue = [0, 1]\nclass = Yes"] ;
862 -> 864 ;
865 [label="campaign <= 3.5\ngini = 0.5\nsamples = 2\nvalue = [1, 1]\nclass = No"] ;
859 -> 865 ;
866 [label="gini = 0.0\nsamples = 1\nvalue = [0, 1]\nclass = Yes"] ;
865 -> 866 ;
867 [label="gini = 0.0\nsamples = 1\nvalue = [1, 0]\nclass = No"] ;
865 -> 867 ;
868 [label="balance <= 2.5\ngini = 0.005\nsamples = 420\nvalue = [419, 1]\nclass = No"] ;
856 -> 868 ;
869 [label="balance <= 1.5\ngini = 0.021\nsamples = 94\nvalue = [93, 1]\nclass = No"] ;
868 -> 869 ;
870 [label="gini = 0.0\nsamples = 90\nvalue = [90, 0]\nclass = No"] ;
869 -> 870 ;
871 [label="duration <= 180.0\ngini = 0.375\nsamples = 4\nvalue = [3, 1]\nclass = No"] ;
869 -> 871 ;
872 [label="gini = 0.0\nsamples = 3\nvalue = [3, 0]\nclass = No"] ;
871 -> 872 ;
873 [label="gini = 0.0\nsamples = 1\nvalue = [0, 1]\nclass = Yes"] ;
871 -> 873 ;
874 [label="gini = 0.0\nsamples = 326\nvalue = [326, 0]\nclass = No"] ;
868 -> 874 ;
875 [label="gini = 0.0\nsamples = 1385\nvalue = [1385, 0]\nclass = No"] ;
855 -> 875 ;
876 [label="balance <= 12303.5\ngini = 0.133\nsamples = 14\nvalue = [13, 1]\nclass = No"] ;
834 -> 876 ;
877 [label="gini = 0.0\nsamples = 1\nvalue = [0, 1]\nclass = Yes"] ;
876 -> 877 ;
878 [label="gini = 0.0\nsamples = 13\nvalue = [13, 0]\nclass = No"] ;
876 -> 878 ;
879 [label="pdays <= 11.5\ngini = 0.43\nsamples = 16\nvalue = [11, 5]\nclass = No"] ;
531 -> 879 ;
880 [label="campaign <= 2.0\ngini = 0.494\nsamples = 9\nvalue = [4, 5]\nclass = Yes"] ;
879 -> 880 ;
881 [label="previous <= 4.5\ngini = 0.444\nsamples = 6\nvalue = [4, 2]\nclass = No"] ;
880 -> 881 ;
882 [label="housing_no <= 0.5\ngini = 0.444\nsamples = 3\nvalue = [1, 2]\nclass = Yes"] ;
881 -> 882 ;
883 [label="gini = 0.0\nsamples = 1\nvalue = [1, 0]\nclass = No"] ;
882 -> 883 ;
884 [label="gini = 0.0\nsamples = 2\nvalue = [0, 2]\nclass = Yes"] ;
882 -> 884 ;
885 [label="gini = 0.0\nsamples = 3\nvalue = [3, 0]\nclass = No"] ;
881 -> 885 ;
886 [label="gini = 0.0\nsamples = 3\nvalue = [0, 3]\nclass = Yes"] ;
880 -> 886 ;
887 [label="gini = 0.0\nsamples = 7\nvalue = [7, 0]\nclass = No"] ;
879 -> 887 ;
888 [label="day <= 21.5\ngini = 0.099\nsamples = 1401\nvalue = [1328, 73]\nclass = No"] ;
526 -> 888 ;
889 [label="day <= 16.5\ngini = 0.064\nsamples = 1327\nvalue = [1283, 44]\nclass = No"] ;
888 -> 889 ;
890 [label="duration <= 137.0\ngini = 0.335\nsamples = 169\nvalue = [133, 36]\nclass = No"] ;
889 -> 890 ;
891 [label="education <= 2.5\ngini = 0.155\nsamples = 106\nvalue = [97, 9]\nclass = No"] ;
890 -> 891 ;
892 [label="balance <= 2068.0\ngini = 0.06\nsamples = 65\nvalue = [63, 2]\nclass = No"] ;
891 -> 892 ;
893 [label="gini = 0.0\nsamples = 55\nvalue = [55, 0]\nclass = No"] ;
892 -> 893 ;
894 [label="balance <= 2610.0\ngini = 0.32\nsamples = 10\nvalue = [8, 2]\nclass = No"] ;
892 -> 894 ;
895 [label="campaign <= 2.0\ngini = 0.444\nsamples = 3\nvalue = [1, 2]\nclass = Yes"] ;
894 -> 895 ;
896 [label="gini = 0.0\nsamples = 2\nvalue = [0, 2]\nclass = Yes"] ;
895 -> 896 ;
897 [label="gini = 0.0\nsamples = 1\nvalue = [1, 0]\nclass = No"] ;
895 -> 897 ;
898 [label="gini = 0.0\nsamples = 7\nvalue = [7, 0]\nclass = No"] ;
894 -> 898 ;
899 [label="balance <= 9341.5\ngini = 0.283\nsamples = 41\nvalue = [34, 7]\nclass = No"] ;
891 -> 899 ;
900 [label="job_blue-collar <= 0.5\ngini = 0.255\nsamples = 40\nvalue = [34, 6]\nclass = No"] ;
899 -> 900 ;
901 [label="job_student <= 0.5\ngini = 0.224\nsamples = 39\nvalue = [34, 5]\nclass = No"] ;
900 -> 901 ;
902 [label="day <= 3.5\ngini = 0.188\nsamples = 38\nvalue = [34, 4]\nclass = No"] ;
901 -> 902 ;
903 [label="balance <= 1482.5\ngini = 0.444\nsamples = 6\nvalue = [4, 2]\nclass = No"] ;
902 -> 903 ;
904 [label="age <= 33.5\ngini = 0.444\nsamples = 3\nvalue = [1, 2]\nclass = Yes"] ;
903 -> 904 ;
905 [label="gini = 0.0\nsamples = 1\nvalue = [1, 0]\nclass = No"] ;
904 -> 905 ;
906 [label="gini = 0.0\nsamples = 2\nvalue = [0, 2]\nclass = Yes"] ;
904 -> 906 ;
907 [label="gini = 0.0\nsamples = 3\nvalue = [3, 0]\nclass = No"] ;
903 -> 907 ;
908 [label="job_entrepreneur <= 0.5\ngini = 0.117\nsamples = 32\nvalue = [30, 2]\nclass = No"] ;
902 -> 908 ;
909 [label="balance <= 4.5\ngini = 0.064\nsamples = 30\nvalue = [29, 1]\nclass = No"] ;
908 -> 909 ;
910 [label="balance <= 1.0\ngini = 0.245\nsamples = 7\nvalue = [6, 1]\nclass = No"] ;
909 -> 910 ;
911 [label="gini = 0.0\nsamples = 6\nvalue = [6, 0]\nclass = No"] ;
910 -> 911 ;
912 [label="gini = 0.0\nsamples = 1\nvalue = [0, 1]\nclass = Yes"] ;
910 -> 912 ;
913 [label="gini = 0.0\nsamples = 23\nvalue = [23, 0]\nclass = No"] ;
909 -> 913 ;
914 [label="campaign <= 3.5\ngini = 0.5\nsamples = 2\nvalue = [1, 1]\nclass = No"] ;
908 -> 914 ;
915 [label="gini = 0.0\nsamples = 1\nvalue = [0, 1]\nclass = Yes"] ;
914 -> 915 ;
916 [label="gini = 0.0\nsamples = 1\nvalue = [1, 0]\nclass = No"] ;
914 -> 916 ;
917 [label="gini = 0.0\nsamples = 1\nvalue = [0, 1]\nclass = Yes"] ;
901 -> 917 ;
918 [label="gini = 0.0\nsamples = 1\nvalue = [0, 1]\nclass = Yes"] ;
900 -> 918 ;
919 [label="gini = 0.0\nsamples = 1\nvalue = [0, 1]\nclass = Yes"] ;
899 -> 919 ;
920 [label="month <= 10.5\ngini = 0.49\nsamples = 63\nvalue = [36, 27]\nclass = No"] ;
890 -> 920 ;
921 [label="campaign <= 1.5\ngini = 0.426\nsamples = 39\nvalue = [27, 12]\nclass = No"] ;
920 -> 921 ;
922 [label="day <= 5.0\ngini = 0.493\nsamples = 25\nvalue = [14, 11]\nclass = No"] ;
921 -> 922 ;
923 [label="duration <= 196.5\ngini = 0.245\nsamples = 7\nvalue = [6, 1]\nclass = No"] ;
922 -> 923 ;
924 [label="gini = 0.0\nsamples = 5\nvalue = [5, 0]\nclass = No"] ;
923 -> 924 ;
925 [label="balance <= 863.0\ngini = 0.5\nsamples = 2\nvalue = [1, 1]\nclass = No"] ;
923 -> 925 ;
926 [label="gini = 0.0\nsamples = 1\nvalue = [1, 0]\nclass = No"] ;
925 -> 926 ;
927 [label="gini = 0.0\nsamples = 1\nvalue = [0, 1]\nclass = Yes"] ;
925 -> 927 ;
928 [label="age <= 36.5\ngini = 0.494\nsamples = 18\nvalue = [8, 10]\nclass = Yes"] ;
922 -> 928 ;
929 [label="job_self-employed <= 0.5\ngini = 0.375\nsamples = 12\nvalue = [3, 9]\nclass = Yes"] ;
928 -> 929 ;
930 [label="duration <= 175.0\ngini = 0.298\nsamples = 11\nvalue = [2, 9]\nclass = Yes"] ;
929 -> 930 ;
931 [label="gini = 0.0\nsamples = 5\nvalue = [0, 5]\nclass = Yes"] ;
930 -> 931 ;
932 [label="duration <= 192.5\ngini = 0.444\nsamples = 6\nvalue = [2, 4]\nclass = Yes"] ;
930 -> 932 ;
933 [label="duration <= 183.5\ngini = 0.444\nsamples = 3\nvalue = [2, 1]\nclass = No"] ;
932 -> 933 ;
934 [label="gini = 0.0\nsamples = 1\nvalue = [1, 0]\nclass = No"] ;
933 -> 934 ;
935 [label="balance <= 371.5\ngini = 0.5\nsamples = 2\nvalue = [1, 1]\nclass = No"] ;
933 -> 935 ;
936 [label="gini = 0.0\nsamples = 1\nvalue = [1, 0]\nclass = No"] ;
935 -> 936 ;
937 [label="gini = 0.0\nsamples = 1\nvalue = [0, 1]\nclass = Yes"] ;
935 -> 937 ;
938 [label="gini = 0.0\nsamples = 3\nvalue = [0, 3]\nclass = Yes"] ;
932 -> 938 ;
939 [label="gini = 0.0\nsamples = 1\nvalue = [1, 0]\nclass = No"] ;
929 -> 939 ;
940 [label="duration <= 208.5\ngini = 0.278\nsamples = 6\nvalue = [5, 1]\nclass = No"] ;
928 -> 940 ;
941 [label="gini = 0.0\nsamples = 5\nvalue = [5, 0]\nclass = No"] ;
940 -> 941 ;
942 [label="gini = 0.0\nsamples = 1\nvalue = [0, 1]\nclass = Yes"] ;
940 -> 942 ;
943 [label="day <= 15.5\ngini = 0.133\nsamples = 14\nvalue = [13, 1]\nclass = No"] ;
921 -> 943 ;
944 [label="gini = 0.0\nsamples = 12\nvalue = [12, 0]\nclass = No"] ;
943 -> 944 ;
945 [label="age <= 32.0\ngini = 0.5\nsamples = 2\nvalue = [1, 1]\nclass = No"] ;
943 -> 945 ;
946 [label="gini = 0.0\nsamples = 1\nvalue = [0, 1]\nclass = Yes"] ;
945 -> 946 ;
947 [label="gini = 0.0\nsamples = 1\nvalue = [1, 0]\nclass = No"] ;
945 -> 947 ;
948 [label="day <= 2.5\ngini = 0.469\nsamples = 24\nvalue = [9, 15]\nclass = Yes"] ;
920 -> 948 ;
949 [label="age <= 55.0\ngini = 0.32\nsamples = 5\nvalue = [4, 1]\nclass = No"] ;
948 -> 949 ;
950 [label="gini = 0.0\nsamples = 4\nvalue = [4, 0]\nclass = No"] ;
949 -> 950 ;
951 [label="gini = 0.0\nsamples = 1\nvalue = [0, 1]\nclass = Yes"] ;
949 -> 951 ;
952 [label="age <= 39.5\ngini = 0.388\nsamples = 19\nvalue = [5, 14]\nclass = Yes"] ;
948 -> 952 ;
953 [label="job_admin. <= 0.5\ngini = 0.165\nsamples = 11\nvalue = [1, 10]\nclass = Yes"] ;
952 -> 953 ;
954 [label="gini = 0.0\nsamples = 9\nvalue = [0, 9]\nclass = Yes"] ;
953 -> 954 ;
955 [label="marital <= 2.0\ngini = 0.5\nsamples = 2\nvalue = [1, 1]\nclass = No"] ;
953 -> 955 ;
956 [label="gini = 0.0\nsamples = 1\nvalue = [1, 0]\nclass = No"] ;
955 -> 956 ;
957 [label="gini = 0.0\nsamples = 1\nvalue = [0, 1]\nclass = Yes"] ;
955 -> 957 ;
958 [label="balance <= 1916.0\ngini = 0.5\nsamples = 8\nvalue = [4, 4]\nclass = No"] ;
952 -> 958 ;
959 [label="loan_no <= 0.5\ngini = 0.32\nsamples = 5\nvalue = [4, 1]\nclass = No"] ;
958 -> 959 ;
960 [label="gini = 0.0\nsamples = 1\nvalue = [0, 1]\nclass = Yes"] ;
959 -> 960 ;
961 [label="gini = 0.0\nsamples = 4\nvalue = [4, 0]\nclass = No"] ;
959 -> 961 ;
962 [label="gini = 0.0\nsamples = 3\nvalue = [0, 3]\nclass = Yes"] ;
958 -> 962 ;
963 [label="month <= 10.5\ngini = 0.014\nsamples = 1158\nvalue = [1150, 8]\nclass = No"] ;
889 -> 963 ;
964 [label="duration <= 177.5\ngini = 0.328\nsamples = 29\nvalue = [23, 6]\nclass = No"] ;
963 -> 964 ;
965 [label="age <= 49.0\ngini = 0.204\nsamples = 26\nvalue = [23, 3]\nclass = No"] ;
964 -> 965 ;
966 [label="campaign <= 2.5\ngini = 0.091\nsamples = 21\nvalue = [20, 1]\nclass = No"] ;
965 -> 966 ;
967 [label="gini = 0.0\nsamples = 18\nvalue = [18, 0]\nclass = No"] ;
966 -> 967 ;
968 [label="job_admin. <= 0.5\ngini = 0.444\nsamples = 3\nvalue = [2, 1]\nclass = No"] ;
966 -> 968 ;
969 [label="gini = 0.0\nsamples = 2\nvalue = [2, 0]\nclass = No"] ;
968 -> 969 ;
970 [label="gini = 0.0\nsamples = 1\nvalue = [0, 1]\nclass = Yes"] ;
968 -> 970 ;
971 [label="duration <= 95.0\ngini = 0.48\nsamples = 5\nvalue = [3, 2]\nclass = No"] ;
965 -> 971 ;
972 [label="gini = 0.0\nsamples = 3\nvalue = [3, 0]\nclass = No"] ;
971 -> 972 ;
973 [label="gini = 0.0\nsamples = 2\nvalue = [0, 2]\nclass = Yes"] ;
971 -> 973 ;
974 [label="gini = 0.0\nsamples = 3\nvalue = [0, 3]\nclass = Yes"] ;
964 -> 974 ;
975 [label="contact <= 0.0\ngini = 0.004\nsamples = 1129\nvalue = [1127, 2]\nclass = No"] ;
963 -> 975 ;
976 [label="campaign <= 1.5\ngini = 0.231\nsamples = 15\nvalue = [13, 2]\nclass = No"] ;
975 -> 976 ;
977 [label="job_admin. <= 0.5\ngini = 0.142\nsamples = 13\nvalue = [12, 1]\nclass = No"] ;
976 -> 977 ;
978 [label="gini = 0.0\nsamples = 11\nvalue = [11, 0]\nclass = No"] ;
977 -> 978 ;
979 [label="duration <= 101.0\ngini = 0.5\nsamples = 2\nvalue = [1, 1]\nclass = No"] ;
977 -> 979 ;
980 [label="gini = 0.0\nsamples = 1\nvalue = [0, 1]\nclass = Yes"] ;
979 -> 980 ;
981 [label="gini = 0.0\nsamples = 1\nvalue = [1, 0]\nclass = No"] ;
979 -> 981 ;
982 [label="campaign <= 3.0\ngini = 0.5\nsamples = 2\nvalue = [1, 1]\nclass = No"] ;
976 -> 982 ;
983 [label="gini = 0.0\nsamples = 1\nvalue = [0, 1]\nclass = Yes"] ;
982 -> 983 ;
984 [label="gini = 0.0\nsamples = 1\nvalue = [1, 0]\nclass = No"] ;
982 -> 984 ;
985 [label="gini = 0.0\nsamples = 1114\nvalue = [1114, 0]\nclass = No"] ;
975 -> 985 ;
986 [label="duration <= 110.5\ngini = 0.477\nsamples = 74\nvalue = [45, 29]\nclass = No"] ;
888 -> 986 ;
987 [label="marital <= 2.5\ngini = 0.198\nsamples = 27\nvalue = [24, 3]\nclass = No"] ;
986 -> 987 ;
988 [label="contact <= 1.5\ngini = 0.142\nsamples = 26\nvalue = [24, 2]\nclass = No"] ;
987 -> 988 ;
989 [label="gini = 0.0\nsamples = 20\nvalue = [20, 0]\nclass = No"] ;
988 -> 989 ;
990 [label="balance <= 677.5\ngini = 0.444\nsamples = 6\nvalue = [4, 2]\nclass = No"] ;
988 -> 990 ;
991 [label="gini = 0.0\nsamples = 3\nvalue = [3, 0]\nclass = No"] ;
990 -> 991 ;
992 [label="age <= 53.5\ngini = 0.444\nsamples = 3\nvalue = [1, 2]\nclass = Yes"] ;
990 -> 992 ;
993 [label="gini = 0.0\nsamples = 2\nvalue = [0, 2]\nclass = Yes"] ;
992 -> 993 ;
994 [label="gini = 0.0\nsamples = 1\nvalue = [1, 0]\nclass = No"] ;
992 -> 994 ;
995 [label="gini = 0.0\nsamples = 1\nvalue = [0, 1]\nclass = Yes"] ;
987 -> 995 ;
996 [label="campaign <= 1.5\ngini = 0.494\nsamples = 47\nvalue = [21, 26]\nclass = Yes"] ;
986 -> 996 ;
997 [label="month <= 9.5\ngini = 0.422\nsamples = 33\nvalue = [10, 23]\nclass = Yes"] ;
996 -> 997 ;
998 [label="balance <= 5826.5\ngini = 0.245\nsamples = 7\nvalue = [6, 1]\nclass = No"] ;
997 -> 998 ;
999 [label="gini = 0.0\nsamples = 6\nvalue = [6, 0]\nclass = No"] ;
998 -> 999 ;
1000 [label="gini = 0.0\nsamples = 1\nvalue = [0, 1]\nclass = Yes"] ;
998 -> 1000 ;
1001 [label="age <= 58.5\ngini = 0.26\nsamples = 26\nvalue = [4, 22]\nclass = Yes"] ;
997 -> 1001 ;
1002 [label="day <= 29.5\ngini = 0.211\nsamples = 25\nvalue = [3, 22]\nclass = Yes"] ;
1001 -> 1002 ;
1003 [label="job_blue-collar <= 0.5\ngini = 0.1\nsamples = 19\nvalue = [1, 18]\nclass = Yes"] ;
1002 -> 1003 ;
1004 [label="gini = 0.0\nsamples = 17\nvalue = [0, 17]\nclass = Yes"] ;
1003 -> 1004 ;
1005 [label="balance <= 8929.5\ngini = 0.5\nsamples = 2\nvalue = [1, 1]\nclass = No"] ;
1003 -> 1005 ;
1006 [label="gini = 0.0\nsamples = 1\nvalue = [1, 0]\nclass = No"] ;
1005 -> 1006 ;
1007 [label="gini = 0.0\nsamples = 1\nvalue = [0, 1]\nclass = Yes"] ;
1005 -> 1007 ;
1008 [label="age <= 33.5\ngini = 0.444\nsamples = 6\nvalue = [2, 4]\nclass = Yes"] ;
1002 -> 1008 ;
1009 [label="gini = 0.0\nsamples = 2\nvalue = [2, 0]\nclass = No"] ;
1008 -> 1009 ;
1010 [label="gini = 0.0\nsamples = 4\nvalue = [0, 4]\nclass = Yes"] ;
1008 -> 1010 ;
1011 [label="gini = 0.0\nsamples = 1\nvalue = [1, 0]\nclass = No"] ;
1001 -> 1011 ;
1012 [label="job_admin. <= 0.5\ngini = 0.337\nsamples = 14\nvalue = [11, 3]\nclass = No"] ;
996 -> 1012 ;
1013 [label="duration <= 118.5\ngini = 0.26\nsamples = 13\nvalue = [11, 2]\nclass = No"] ;
1012 -> 1013 ;
1014 [label="gini = 0.0\nsamples = 1\nvalue = [0, 1]\nclass = Yes"] ;
1013 -> 1014 ;
1015 [label="duration <= 201.5\ngini = 0.153\nsamples = 12\nvalue = [11, 1]\nclass = No"] ;
1013 -> 1015 ;
1016 [label="gini = 0.0\nsamples = 11\nvalue = [11, 0]\nclass = No"] ;
1015 -> 1016 ;
1017 [label="gini = 0.0\nsamples = 1\nvalue = [0, 1]\nclass = Yes"] ;
1015 -> 1017 ;
1018 [label="gini = 0.0\nsamples = 1\nvalue = [0, 1]\nclass = Yes"] ;
1012 -> 1018 ;
1019 [label="contact <= 0.0\ngini = 0.126\nsamples = 6017\nvalue = [5609, 408]\nclass = No"] ;
525 -> 1019 ;
1020 [label="month <= 9.0\ngini = 0.023\nsamples = 2574\nvalue = [2544, 30]\nclass = No"] ;
1019 -> 1020 ;
1021 [label="duration <= 393.5\ngini = 0.017\nsamples = 2559\nvalue = [2537, 22]\nclass = No"] ;
1020 -> 1021 ;
1022 [label="duration <= 368.5\ngini = 0.007\nsamples = 2140\nvalue = [2133, 7]\nclass = No"] ;
1021 -> 1022 ;
1023 [label="age <= 26.5\ngini = 0.004\nsamples = 1945\nvalue = [1941, 4]\nclass = No"] ;
1022 -> 1023 ;
1024 [label="job_management <= 0.5\ngini = 0.043\nsamples = 91\nvalue = [89, 2]\nclass = No"] ;
1023 -> 1024 ;
1025 [label="housing_yes <= 0.5\ngini = 0.023\nsamples = 87\nvalue = [86, 1]\nclass = No"] ;
1024 -> 1025 ;
1026 [label="job_technician <= 0.5\ngini = 0.198\nsamples = 9\nvalue = [8, 1]\nclass = No"] ;
1025 -> 1026 ;
1027 [label="gini = 0.0\nsamples = 7\nvalue = [7, 0]\nclass = No"] ;
1026 -> 1027 ;
1028 [label="month <= 5.5\ngini = 0.5\nsamples = 2\nvalue = [1, 1]\nclass = No"] ;
1026 -> 1028 ;
1029 [label="gini = 0.0\nsamples = 1\nvalue = [1, 0]\nclass = No"] ;
1028 -> 1029 ;
1030 [label="gini = 0.0\nsamples = 1\nvalue = [0, 1]\nclass = Yes"] ;
1028 -> 1030 ;
1031 [label="gini = 0.0\nsamples = 78\nvalue = [78, 0]\nclass = No"] ;
1025 -> 1031 ;
1032 [label="age <= 25.5\ngini = 0.375\nsamples = 4\nvalue = [3, 1]\nclass = No"] ;
1024 -> 1032 ;
1033 [label="gini = 0.0\nsamples = 3\nvalue = [3, 0]\nclass = No"] ;
1032 -> 1033 ;
1034 [label="gini = 0.0\nsamples = 1\nvalue = [0, 1]\nclass = Yes"] ;
1032 -> 1034 ;
1035 [label="day <= 2.5\ngini = 0.002\nsamples = 1854\nvalue = [1852, 2]\nclass = No"] ;
1023 -> 1035 ;
1036 [label="duration <= 230.5\ngini = 0.028\nsamples = 70\nvalue = [69, 1]\nclass = No"] ;
1035 -> 1036 ;
1037 [label="duration <= 228.5\ngini = 0.133\nsamples = 14\nvalue = [13, 1]\nclass = No"] ;
1036 -> 1037 ;
1038 [label="gini = 0.0\nsamples = 12\nvalue = [12, 0]\nclass = No"] ;
1037 -> 1038 ;
1039 [label="age <= 32.5\ngini = 0.5\nsamples = 2\nvalue = [1, 1]\nclass = No"] ;
1037 -> 1039 ;
1040 [label="gini = 0.0\nsamples = 1\nvalue = [1, 0]\nclass = No"] ;
1039 -> 1040 ;
1041 [label="gini = 0.0\nsamples = 1\nvalue = [0, 1]\nclass = Yes"] ;
1039 -> 1041 ;
1042 [label="gini = 0.0\nsamples = 56\nvalue = [56, 0]\nclass = No"] ;
1036 -> 1042 ;
1043 [label="job_management <= 0.5\ngini = 0.001\nsamples = 1784\nvalue = [1783, 1]\nclass = No"] ;
1035 -> 1043 ;
1044 [label="gini = 0.0\nsamples = 1512\nvalue = [1512, 0]\nclass = No"] ;
1043 -> 1044 ;
1045 [label="age <= 50.5\ngini = 0.007\nsamples = 272\nvalue = [271, 1]\nclass = No"] ;
1043 -> 1045 ;
1046 [label="gini = 0.0\nsamples = 235\nvalue = [235, 0]\nclass = No"] ;
1045 -> 1046 ;
1047 [label="age <= 51.5\ngini = 0.053\nsamples = 37\nvalue = [36, 1]\nclass = No"] ;
1045 -> 1047 ;
1048 [label="duration <= 287.0\ngini = 0.278\nsamples = 6\nvalue = [5, 1]\nclass = No"] ;
1047 -> 1048 ;
1049 [label="gini = 0.0\nsamples = 5\nvalue = [5, 0]\nclass = No"] ;
1048 -> 1049 ;
1050 [label="gini = 0.0\nsamples = 1\nvalue = [0, 1]\nclass = Yes"] ;
1048 -> 1050 ;
1051 [label="gini = 0.0\nsamples = 31\nvalue = [31, 0]\nclass = No"] ;
1047 -> 1051 ;
1052 [label="balance <= 1502.5\ngini = 0.03\nsamples = 195\nvalue = [192, 3]\nclass = No"] ;
1022 -> 1052 ;
1053 [label="age <= 50.5\ngini = 0.012\nsamples = 168\nvalue = [167, 1]\nclass = No"] ;
1052 -> 1053 ;
1054 [label="gini = 0.0\nsamples = 150\nvalue = [150, 0]\nclass = No"] ;
1053 -> 1054 ;
1055 [label="job_services <= 0.5\ngini = 0.105\nsamples = 18\nvalue = [17, 1]\nclass = No"] ;
1053 -> 1055 ;
1056 [label="gini = 0.0\nsamples = 16\nvalue = [16, 0]\nclass = No"] ;
1055 -> 1056 ;
1057 [label="campaign <= 3.0\ngini = 0.5\nsamples = 2\nvalue = [1, 1]\nclass = No"] ;
1055 -> 1057 ;
1058 [label="gini = 0.0\nsamples = 1\nvalue = [0, 1]\nclass = Yes"] ;
1057 -> 1058 ;
1059 [label="gini = 0.0\nsamples = 1\nvalue = [1, 0]\nclass = No"] ;
1057 -> 1059 ;
1060 [label="balance <= 1512.0\ngini = 0.137\nsamples = 27\nvalue = [25, 2]\nclass = No"] ;
1052 -> 1060 ;
1061 [label="gini = 0.0\nsamples = 1\nvalue = [0, 1]\nclass = Yes"] ;
1060 -> 1061 ;
1062 [label="duration <= 370.0\ngini = 0.074\nsamples = 26\nvalue = [25, 1]\nclass = No"] ;
1060 -> 1062 ;
1063 [label="loan_no <= 0.5\ngini = 0.5\nsamples = 2\nvalue = [1, 1]\nclass = No"] ;
1062 -> 1063 ;
1064 [label="gini = 0.0\nsamples = 1\nvalue = [1, 0]\nclass = No"] ;
